{"learner":{"attributes":{"scikit_learn":"{\"_estimator_type\": \"regressor\"}"},"feature_names":["temperature_2m_mean","precipitation_sum","wind_speed_10m_max","wind_direction_10m_dominant"],"feature_types":["float","float","float","float"],"gradient_booster":{"model":{"gbtree_model_param":{"num_parallel_tree":"1","num_trees":"100"},"iteration_indptr":[0,1,2,3,4,5,6,7,8,9,10,11,12,13,14,15,16,17,18,19,20,21,22,23,24,25,26,27,28,29,30,31,32,33,34,35,36,37,38,39,40,41,42,43,44,45,46,47,48,49,50,51,52,53,54,55,56,57,58,59,60,61,62,63,64,65,66,67,68,69,70,71,72,73,74,75,76,77,78,79,80,81,82,83,84,85,86,87,88,89,90,91,92,93,94,95,96,97,98,99,100],"tree_info":[0,0,0,0,0,0,0,0,0,0,0,0,0,0,0,0,0,0,0,0,0,0,0,0,0,0,0,0,0,0,0,0,0,0,0,0,0,0,0,0,0,0,0,0,0,0,0,0,0,0,0,0,0,0,0,0,0,0,0,0,0,0,0,0,0,0,0,0,0,0,0,0,0,0,0,0,0,0,0,0,0,0,0,0,0,0,0,0,0,0,0,0,0,0,0,0,0,0,0,0],"trees":[{"base_weights":[3.1417594E-7,1.580193E1,-7.721978E0,3.4619427E1,4.58492E0,4.880081E0,-1.2343341E1,7.119308E1,3.2305965E1,1.7341896E1,-1.1318251E1,1.5667355E1,-6.977494E0,-7.146913E0,-1.8423254E1,3.702121E0,2.1916073E1,4.039183E1,2.709042E1,3.7506035E1,1.2279383E1,-3.8607023E0,-1.902209E1,2.271592E1,1.1761864E1,-8.759198E0,-2.7846198E0,3.8371663E0,-1.3015711E1,-1.9780598E1,-1.3317402E1,4.4612633E1,3.3714912E1,3.4083168E1,1.950361E1,3.9595154E1,8.869262E0,8.012754E0,2.4309433E1,8.200786E0,-7.5498776E0,-1.3943308E1,-2.3259428E1,1.4050626E1,1.918832E1,3.73573E-1,1.3113078E1,-1.3945556E1,-7.5427155E0,-7.4116364E0,-7.703831E-1,2.1250244E1,4.867954E-1,-9.058691E0,-1.4753845E1,-9.559209E0,-2.0718662E1,-4.5773234E0,-1.688809E1,1.3879193E1,8.203856E0,1.164737E1,8.025985E0,1.7506419E-1,1.06910305E1,8.164165E0,4.052833E0,1.3393737E1,9.149266E0,2.8339326E-1,5.736161E0,5.402475E0,1.474686E0,9.183078E0,5.7414136E0,4.4808383E0,1.4696126E0,-5.2012944E-1,-2.8126323E0,-2.5958488E0,-6.383391E0,1.6021209E0,-7.093534E0,6.651921E0,1.9131398E0,7.0202017E0,-1.9659706E0,4.7575917E0,1.6459827E0,-2.9959514E0,-5.2809706E0,1.6033933E0,-2.3587036E0,-5.730078E-1,-3.3548317E0,2.5601488E-1,-1.9693747E0,6.830157E0,1.5202013E0,-7.274865E-1,2.301781E0,1.4275215E0,-3.0919144E0,-1.669856E0,-4.5668902E0,-2.5675368E0,-5.476607E0,-5.072945E0,-6.623103E0,1.852072E0,-4.10625E0,-4.4697614E0,-6.7507343E0],"categories":[],"categories_nodes":[],"categories_segments":[],"categories_sizes":[],"default_left":[0,0,0,0,0,0,0,0,0,0,0,0,0,0,0,0,0,0,0,0,0,0,0,0,0,0,0,0,0,0,0,0,0,0,0,0,0,0,0,0,0,0,0,0,0,0,0,0,0,0,0,0,0,0,0,0,0,0,0,0,0,0,0,0,0,0,0,0,0,0,0,0,0,0,0,0,0,0,0,0,0,0,0,0,0,0,0,0,0,0,0,0,0,0,0,0,0,0,0,0,0,0,0,0,0,0,0,0,0,0,0,0,0],"id":0,"left_children":[1,3,5,7,9,11,13,15,17,19,21,23,25,27,29,-1,-1,31,33,35,37,39,41,43,45,47,49,51,53,55,57,59,61,63,65,67,69,71,73,75,77,79,81,-1,83,85,87,89,91,93,95,97,99,101,103,105,107,109,111,-1,-1,-1,-1,-1,-1,-1,-1,-1,-1,-1,-1,-1,-1,-1,-1,-1,-1,-1,-1,-1,-1,-1,-1,-1,-1,-1,-1,-1,-1,-1,-1,-1,-1,-1,-1,-1,-1,-1,-1,-1,-1,-1,-1,-1,-1,-1,-1,-1,-1,-1,-1,-1,-1],"loss_changes":[4.4904156E5,2.5482119E5,1.4402628E5,3.5859938E4,1.5397655E5,8.504215E4,5.7021562E4,1.945375E3,1.6871094E4,4.251565E4,1.9345262E4,9.312602E3,2.343746E3,6.303062E4,5.5095938E3,0E0,0E0,3.1459375E3,1.3235047E4,4.674172E3,1.7153992E4,7.759886E3,3.2480898E3,9.566633E3,3.472793E3,1.2954355E3,8.8900116E2,1.9883688E4,4.2475312E3,6.0918594E3,5.4777383E3,1.529125E3,1.3801797E3,7.0052812E3,5.54809E3,2.2224062E3,5.506E2,7.681783E3,2.2815742E3,8.3869775E2,1.395897E3,2.8425889E3,1.1079883E3,0E0,4.0265586E3,4.1409575E3,4.1426523E3,4.1792334E2,7.9171387E2,5.803126E2,6.453749E2,1.2348027E3,6.023586E3,3.4452158E3,1.8160312E3,3.398169E2,2.7309375E3,5.275456E3,1.0716875E3,0E0,0E0,0E0,0E0,0E0,0E0,0E0,0E0,0E0,0E0,0E0,0E0,0E0,0E0,0E0,0E0,0E0,0E0,0E0,0E0,0E0,0E0,0E0,0E0,0E0,0E0,0E0,0E0,0E0,0E0,0E0,0E0,0E0,0E0,0E0,0E0,0E0,0E0,0E0,0E0,0E0,0E0,0E0,0E0,0E0,0E0,0E0,0E0,0E0,0E0,0E0,0E0,0E0,0E0],"parents":[2147483647,0,0,1,1,2,2,3,3,4,4,5,5,6,6,7,7,8,8,9,9,10,10,11,11,12,12,13,13,14,14,17,17,18,18,19,19,20,20,21,21,22,22,23,23,24,24,25,25,26,26,27,27,28,28,29,29,30,30,31,31,32,32,33,33,34,34,35,35,36,36,37,37,38,38,39,39,40,40,41,41,42,42,44,44,45,45,46,46,47,47,48,48,49,49,50,50,51,51,52,52,53,53,54,54,55,55,56,56,57,57,58,58],"right_children":[2,4,6,8,10,12,14,16,18,20,22,24,26,28,30,-1,-1,32,34,36,38,40,42,44,46,48,50,52,54,56,58,60,62,64,66,68,70,72,74,76,78,80,82,-1,84,86,88,90,92,94,96,98,100,102,104,106,108,110,112,-1,-1,-1,-1,-1,-1,-1,-1,-1,-1,-1,-1,-1,-1,-1,-1,-1,-1,-1,-1,-1,-1,-1,-1,-1,-1,-1,-1,-1,-1,-1,-1,-1,-1,-1,-1,-1,-1,-1,-1,-1,-1,-1,-1,-1,-1,-1,-1,-1,-1,-1,-1,-1,-1],"split_conditions":[6.808666E0,2.0523438E2,1.6030374E2,-3.4913337E0,2.3688984E1,1.6457499E1,2.1194187E1,4.6927953E0,1.4654254E1,1.2819235E1,2.9986076E1,1.0512834E1,1E-1,1.4739915E1,3.1122543E2,3.702121E0,2.1916073E1,3.0887496E0,1.3969135E2,3.2000003E0,3.2802548E2,9.899166E-1,3.9232495E0,1.0703569E1,3.4508606E1,5.5985466E1,1.02344826E2,1.1792404E1,1.3608762E1,1.8684267E2,1.0774167E1,1.8266289E2,1.4036797E2,4.6927953E0,2.3857505E0,1.1090103E1,1.2218805E1,9.899166E-1,5.420001E-1,-8.600833E-1,1E-1,3.511061E1,2.1178804E2,1.4050626E1,1.4868651E2,9.659814E0,1.4731151E2,1.1792404E1,1.668575E1,1.9781582E1,1.4943085E2,2.2E0,3.1768082E2,1.6115833E1,1.7466608E2,3.4674183E1,2.4192429E1,2.6368616E1,2.7322077E1,1.3879193E1,8.203856E0,1.164737E1,8.025985E0,1.7506419E-1,1.06910305E1,8.164165E0,4.052833E0,1.3393737E1,9.149266E0,2.8339326E-1,5.736161E0,5.402475E0,1.474686E0,9.183078E0,5.7414136E0,4.4808383E0,1.4696126E0,-5.2012944E-1,-2.8126323E0,-2.5958488E0,-6.383391E0,1.6021209E0,-7.093534E0,6.651921E0,1.9131398E0,7.0202017E0,-1.9659706E0,4.7575917E0,1.6459827E0,-2.9959514E0,-5.2809706E0,1.6033933E0,-2.3587036E0,-5.730078E-1,-3.3548317E0,2.5601488E-1,-1.9693747E0,6.830157E0,1.5202013E0,-7.274865E-1,2.301781E0,1.4275215E0,-3.0919144E0,-1.669856E0,-4.5668902E0,-2.5675368E0,-5.476607E0,-5.072945E0,-6.623103E0,1.852072E0,-4.10625E0,-4.4697614E0,-6.7507343E0],"split_indices":[0,3,3,0,2,0,2,3,2,2,2,0,1,0,3,0,0,0,3,1,3,0,0,2,3,3,3,2,2,3,0,3,3,3,0,2,2,0,0,0,1,2,3,0,3,2,3,2,0,0,3,1,3,0,3,2,2,2,2,0,0,0,0,0,0,0,0,0,0,0,0,0,0,0,0,0,0,0,0,0,0,0,0,0,0,0,0,0,0,0,0,0,0,0,0,0,0,0,0,0,0,0,0,0,0,0,0,0,0,0,0,0,0],"split_type":[0,0,0,0,0,0,0,0,0,0,0,0,0,0,0,0,0,0,0,0,0,0,0,0,0,0,0,0,0,0,0,0,0,0,0,0,0,0,0,0,0,0,0,0,0,0,0,0,0,0,0,0,0,0,0,0,0,0,0,0,0,0,0,0,0,0,0,0,0,0,0,0,0,0,0,0,0,0,0,0,0,0,0,0,0,0,0,0,0,0,0,0,0,0,0,0,0,0,0,0,0,0,0,0,0,0,0,0,0,0,0,0,0],"sum_hessian":[3.678E3,1.207E3,2.471E3,4.5E2,7.57E2,6.63E2,1.808E3,2.5E1,4.25E2,4.2E2,3.37E2,3.47E2,3.16E2,9.76E2,8.32E2,1E0,2.4E1,1.64E2,2.61E2,8.3E1,3.37E2,1.72E2,1.65E2,1.22E2,2.25E2,2.21E2,9.5E1,3.4E2,6.36E2,6.55E2,1.77E2,9.7E1,6.7E1,1.34E2,1.27E2,7.7E1,6E0,2.5E2,8.7E1,4E1,1.32E2,7.7E1,8.8E1,1.4E1,1.08E2,2.4E1,2.01E2,4E1,1.81E2,2.8E1,6.7E1,5.4E1,2.86E2,1.96E2,4.4E2,5.6E1,5.99E2,5.2E1,1.25E2,8.7E1,1E1,3.6E1,3.1E1,6E0,1.28E2,5.4E1,7.3E1,4.7E1,3E1,4E0,2E0,5.8E1,1.92E2,3.7E1,5E1,1.2E1,2.8E1,3.2E1,1E2,4.6E1,3.1E1,1E0,8.7E1,8.7E1,2.1E1,5E0,1.9E1,1.47E2,5.4E1,2.1E1,1.9E1,4E0,1.77E2,1.2E1,1.6E1,5.3E1,1.4E1,4.9E1,5E0,2.04E2,8.2E1,1.6E1,1.8E2,2.2E1,4.18E2,5.2E1,4E0,1.61E2,4.38E2,2.4E1,2.8E1,9.5E1,3E1],"tree_param":{"num_deleted":"0","num_feature":"4","num_nodes":"113","size_leaf_vector":"1"}},{"base_weights":[3.185089E-2,1.0378899E1,-5.87256E0,2.3918386E1,2.568311E0,2.1390045E0,-9.19749E0,5.0820473E1,2.2359394E1,9.413035E0,-1.11544E1,9.424091E0,-4.9643435E0,-4.5292697E0,-1.2765989E1,6.645754E1,4.0178577E1,2.826595E1,1.7449905E1,1.8331638E1,3.5351975E0,-6.4625764E0,-1.4720848E1,1.161385E1,3.8982208E0,-9.336278E0,-4.2361407E0,4.2210255E0,-8.867713E0,-8.59548E0,-1.3979401E1,5.81471E0,2.0975744E1,2.0400335E1,1.4510303E1,4.111431E0,2.9082634E1,2.6691683E1,1.3688494E1,2.8898153E1,1.4988534E1,1.2435036E1,3.200967E-1,1.4231633E1,-8.012449E0,-6.5165873E0,-1.5587178E1,5.3470173E0,1.3969137E1,1.1265124E1,6.387234E-1,6.6482764E-1,-1.0747242E1,-1.7824559E0,-5.394106E0,1.7071156E1,1.3947483E0,-5.902652E0,-9.914776E0,4.3049523E-1,-1.2535874E1,-7.0720954E0,-1.4591981E1,7.276373E0,2.1529467E0,5.3835053E0,-1.04718E0,8.953645E0,2.055864E0,8.279339E0,1.2485399E0,5.1834006E0,2.148711E0,9.348304E0,2.8275263E-1,3.31548E0,6.187072E0,6.157369E0,2.914491E0,-3.5550866E-1,3.4643092E0,6.9770093E0,2.4991975E0,-9.0123886E-1,-3.6534343E0,-4.441495E0,-1.9492128E-1,-3.656927E0,-5.1957626E0,5.4050517E0,3.306401E-1,4.681981E0,2.859177E0,8.421626E0,1.1632496E0,1.0015235E0,-1.3686876E0,-1.4912301E0,2.950763E0,-1.3481187E0,-3.9921923E0,-1.1994183E0,1.0118551E0,-1.0426844E-1,-1.8387868E0,4.448457E0,1.26103945E1,-1.9803642E0,1.5609921E0,-2.7123306E0,-3.8725883E-1,-3.3214095E0,-2.1313045E0,8.7960094E-1,-4.161345E0,-2.9156103E0,-5.915905E0,-3.263499E0,-1.1801397E0,-4.6050644E0,-2.2070272E0],"categories":[],"categories_nodes":[],"categories_segments":[],"categories_sizes":[],"default_left":[0,0,0,0,0,0,0,0,0,0,0,0,0,0,0,0,0,0,0,0,0,0,0,0,0,0,0,0,0,0,0,0,0,0,0,0,0,0,0,0,0,0,0,0,0,0,0,0,0,0,0,0,0,0,0,0,0,0,0,0,0,0,0,0,0,0,0,0,0,0,0,0,0,0,0,0,0,0,0,0,0,0,0,0,0,0,0,0,0,0,0,0,0,0,0,0,0,0,0,0,0,0,0,0,0,0,0,0,0,0,0,0,0,0,0,0,0,0,0,0,0],"id":1,"left_children":[1,3,5,7,9,11,13,15,17,19,21,23,25,27,29,31,33,35,37,39,41,43,45,47,49,51,53,55,57,59,61,-1,-1,63,-1,65,67,69,71,73,75,77,79,81,83,85,87,89,91,93,95,97,99,101,103,105,107,109,111,113,115,117,119,-1,-1,-1,-1,-1,-1,-1,-1,-1,-1,-1,-1,-1,-1,-1,-1,-1,-1,-1,-1,-1,-1,-1,-1,-1,-1,-1,-1,-1,-1,-1,-1,-1,-1,-1,-1,-1,-1,-1,-1,-1,-1,-1,-1,-1,-1,-1,-1,-1,-1,-1,-1,-1,-1,-1,-1,-1,-1],"loss_changes":[2.248229E5,1.4132816E5,6.2432234E4,1.9372406E4,7.9850016E4,3.5649758E4,2.7528719E4,1.6564375E3,1.2961906E4,2.9658531E4,4.6403477E3,4.068834E3,1.0715459E3,2.7332584E4,4.6266406E3,1.1139844E2,1.928668E3,4.0032969E3,8.533734E3,7.5149688E3,9.81058E3,4.0911318E3,1.0356406E3,3.5120352E3,2.34602E3,6.9859424E2,8.4561084E2,8.656199E3,1.4347969E3,7.616503E3,2.9644844E3,0E0,0E0,1.8271265E2,0E0,9.0394556E2,3.2209844E3,1.3754102E3,4.1865547E3,3.3233906E3,3.610043E3,1.8029717E3,4.289118E3,2.8556653E2,2.383521E3,8.170357E2,6.362422E2,3.6373132E3,1.1304219E3,3.6160564E3,9.84068E2,4.1068207E2,6.286045E2,1.1328527E3,7.547373E2,1.7843701E3,6.0336074E3,1.8409844E3,1.0720234E3,2.4018647E3,2.8238184E3,6.858572E2,3.53525E3,0E0,0E0,0E0,0E0,0E0,0E0,0E0,0E0,0E0,0E0,0E0,0E0,0E0,0E0,0E0,0E0,0E0,0E0,0E0,0E0,0E0,0E0,0E0,0E0,0E0,0E0,0E0,0E0,0E0,0E0,0E0,0E0,0E0,0E0,0E0,0E0,0E0,0E0,0E0,0E0,0E0,0E0,0E0,0E0,0E0,0E0,0E0,0E0,0E0,0E0,0E0,0E0,0E0,0E0,0E0,0E0,0E0,0E0],"parents":[2147483647,0,0,1,1,2,2,3,3,4,4,5,5,6,6,7,7,8,8,9,9,10,10,11,11,12,12,13,13,14,14,15,15,16,16,17,17,18,18,19,19,20,20,21,21,22,22,23,23,24,24,25,25,26,26,27,27,28,28,29,29,30,30,33,33,35,35,36,36,37,37,38,38,39,39,40,40,41,41,42,42,43,43,44,44,45,45,46,46,47,47,48,48,49,49,50,50,51,51,52,52,53,53,54,54,55,55,56,56,57,57,58,58,59,59,60,60,61,61,62,62],"right_children":[2,4,6,8,10,12,14,16,18,20,22,24,26,28,30,32,34,36,38,40,42,44,46,48,50,52,54,56,58,60,62,-1,-1,64,-1,66,68,70,72,74,76,78,80,82,84,86,88,90,92,94,96,98,100,102,104,106,108,110,112,114,116,118,120,-1,-1,-1,-1,-1,-1,-1,-1,-1,-1,-1,-1,-1,-1,-1,-1,-1,-1,-1,-1,-1,-1,-1,-1,-1,-1,-1,-1,-1,-1,-1,-1,-1,-1,-1,-1,-1,-1,-1,-1,-1,-1,-1,-1,-1,-1,-1,-1,-1,-1,-1,-1,-1,-1,-1,-1,-1,-1],"split_conditions":[7.799167E0,2.0523438E2,1.6826147E2,-3.4913337E0,2.6368616E1,1.6457499E1,1.9164717E1,1.0661107E1,1.3542595E2,1.7610588E1,3.9232495E0,1.4731151E2,4.3071095E1,1.5089915E1,1.0774167E1,7.072878E0,1.2156051E2,3.6274498E0,1.3896187E1,1.1090103E1,9.899166E-1,2.6392343E2,2.6153058E2,9.269607E1,1.1144082E1,1.7409582E1,1.3527572E1,1.1609651E1,1.2261157E1,2.4098497E1,2.225104E2,5.81471E0,2.0975744E1,-4.568417E0,1.4510303E1,1.3202726E1,5.6E0,7.033667E0,4.215833E0,6.808666E0,3.196946E2,-2.2425E0,3.3093918E2,8E-1,3.1205997E1,5.6074996E0,5E-1,9.659814E0,1E-1,1.8532133E1,1.5792642E2,7E-1,6.8650684E0,1.409363E2,1.2897934E2,1.4632501E1,2.799833E2,1E-1,3.2094687E2,4.8999996E0,3.6061146E1,1.754825E1,3.3093918E2,7.276373E0,2.1529467E0,5.3835053E0,-1.04718E0,8.953645E0,2.055864E0,8.279339E0,1.2485399E0,5.1834006E0,2.148711E0,9.348304E0,2.8275263E-1,3.31548E0,6.187072E0,6.157369E0,2.914491E0,-3.5550866E-1,3.4643092E0,6.9770093E0,2.4991975E0,-9.0123886E-1,-3.6534343E0,-4.441495E0,-1.9492128E-1,-3.656927E0,-5.1957626E0,5.4050517E0,3.306401E-1,4.681981E0,2.859177E0,8.421626E0,1.1632496E0,1.0015235E0,-1.3686876E0,-1.4912301E0,2.950763E0,-1.3481187E0,-3.9921923E0,-1.1994183E0,1.0118551E0,-1.0426844E-1,-1.8387868E0,4.448457E0,1.26103945E1,-1.9803642E0,1.5609921E0,-2.7123306E0,-3.8725883E-1,-3.3214095E0,-2.1313045E0,8.7960094E-1,-4.161345E0,-2.9156103E0,-5.915905E0,-3.263499E0,-1.1801397E0,-4.6050644E0,-2.2070272E0],"split_indices":[0,3,3,0,2,0,2,2,3,2,0,3,3,0,0,2,3,3,2,2,0,3,3,3,0,0,2,2,2,2,3,0,0,0,0,2,1,0,0,0,3,0,3,1,2,0,1,2,1,2,3,1,3,3,3,0,3,1,3,1,2,0,3,0,0,0,0,0,0,0,0,0,0,0,0,0,0,0,0,0,0,0,0,0,0,0,0,0,0,0,0,0,0,0,0,0,0,0,0,0,0,0,0,0,0,0,0,0,0,0,0,0,0,0,0,0,0,0,0,0,0],"split_type":[0,0,0,0,0,0,0,0,0,0,0,0,0,0,0,0,0,0,0,0,0,0,0,0,0,0,0,0,0,0,0,0,0,0,0,0,0,0,0,0,0,0,0,0,0,0,0,0,0,0,0,0,0,0,0,0,0,0,0,0,0,0,0,0,0,0,0,0,0,0,0,0,0,0,0,0,0,0,0,0,0,0,0,0,0,0,0,0,0,0,0,0,0,0,0,0,0,0,0,0,0,0,0,0,0,0,0,0,0,0,0,0,0,0,0,0,0,0,0,0,0],"sum_hessian":[3.678E3,1.336E3,2.342E3,4.88E2,8.48E2,6.87E2,1.655E3,2.5E1,4.63E2,5.66E2,2.82E2,3.39E2,3.48E2,7.18E2,9.37E2,8E0,1.7E1,2.08E2,2.55E2,2.24E2,3.42E2,1.23E2,1.59E2,2.42E2,9.7E1,4.8E1,3E2,2.38E2,4.8E2,2.13E2,7.24E2,1E0,7E0,6E0,1.1E1,7E0,2.01E2,7.2E1,1.83E2,5.2E1,1.72E2,9E1,2.52E2,8E0,1.15E2,1.6E1,1.43E2,6.7E1,1.75E2,2.9E1,6.8E1,6E0,4.2E1,9.7E1,2.03E2,4.2E1,1.96E2,1.27E2,3.53E2,6.5E1,1.48E2,6E1,6.64E2,4E0,2E0,2E0,5E0,1.94E2,7E0,6.9E1,3E0,1.17E2,6.6E1,4.8E1,4E0,1.03E2,6.9E1,2.1E1,6.9E1,2.23E2,2.9E1,2E0,6E0,5.3E1,6.2E1,6E0,1E1,5.1E1,9.2E1,1.6E1,5.1E1,1.26E2,4.9E1,8E0,2.1E1,4.5E1,2.3E1,4E0,2E0,1.3E1,2.9E1,6.8E1,2.9E1,2.6E1,1.77E2,4E1,2E0,6.3E1,1.33E2,7.5E1,5.2E1,2.48E2,1.05E2,5.6E1,9E0,1.08E2,4E1,2.6E1,3.4E1,6E2,6.4E1],"tree_param":{"num_deleted":"0","num_feature":"4","num_nodes":"121","size_leaf_vector":"1"}},{"base_weights":[5.134838E-2,8.700994E0,-3.4667227E0,1.8071503E1,2.937725E0,3.0268853E0,-5.735521E0,3.7525486E1,1.6692884E1,1.0576923E1,-4.415503E0,9.089634E0,-2.782508E0,-1.7008636E0,-8.180979E0,1.4849097E1,2.9454985E1,2.1100037E1,1.3883789E1,1.9611305E1,7.824301E0,5.3451486E0,-6.3381305E0,2.7806677E1,8.4820175E0,1.9789193E0,-3.7648103E0,6.6166873E0,-4.899127E0,-6.510548E0,-1.1006519E1,1.6830673E1,3.5958576E1,2.2815731E1,1.2303919E1,1.6332483E1,8.442142E0,2.2686907E1,3.1978984E0,1.8049957E1,6.2404895E0,2.9090225E1,2.446803E0,-3.2745075E0,-1.0630638E1,3.1756802E1,-1.1616675E0,8.936577E0,-6.639351E0,-1.3566265E0,9.837227E0,-4.775921E0,-2.2244708E-1,1.1004658E1,4.6802264E-1,-1.2605324E0,-6.202057E0,-2.6557198E0,-9.471694E0,-7.3771257E0,-1.1952089E1,5.871091E0,1.7223572E0,5.281064E0,1.3179711E1,6.542601E0,1.2545347E1,5.315895E0,5.6003517E-1,3.058468E0,5.8262715E0,2.0458953E0,1.0660931E1,5.847376E0,1.4939127E1,2.9920676E0,-1.9107896E0,4.784275E0,1.0127351E1,2.6646867E0,7.782527E-1,-4.233164E-1,1.06418085E1,1.9300517E0,-1.2162784E0,-5.132014E-1,-2.4001732E0,-2.6106443E0,-4.4700546E0,1.0183338E1,2.1383326E0,3.1639159E0,1.3845148E0,-3.3700693E0,6.0472183E-2,1.190057E0,-2.1367521E0,-2.6312785E0,5.3006697E0,-2.3199496E0,-1.2213334E0,-1.1462456E0,4.3852088E-1,6.5640273E0,2.177172E0,1.5859892E0,-4.7804484E-1,2.773831E0,-1.2550385E0,1.2142231E0,-2.0040126E0,-1.7709631E0,4.117284E-1,-3.0360534E0,-1.7611945E0,2.0871381E-1,-2.4690142E0,-3.6947267E0,9.949348E-1],"categories":[],"categories_nodes":[],"categories_segments":[],"categories_sizes":[],"default_left":[0,0,0,0,0,0,0,0,0,0,0,0,0,0,0,0,0,0,0,0,0,0,0,0,0,0,0,0,0,0,0,0,0,0,0,0,0,0,0,0,0,0,0,0,0,0,0,0,0,0,0,0,0,0,0,0,0,0,0,0,0,0,0,0,0,0,0,0,0,0,0,0,0,0,0,0,0,0,0,0,0,0,0,0,0,0,0,0,0,0,0,0,0,0,0,0,0,0,0,0,0,0,0,0,0,0,0,0,0,0,0,0,0,0,0,0,0,0,0],"id":2,"left_children":[1,3,5,7,9,11,13,15,17,19,21,23,25,27,29,-1,31,33,35,37,39,41,43,45,47,49,51,53,55,57,59,61,63,65,67,69,71,73,75,77,79,81,83,85,87,89,-1,91,93,95,97,99,101,103,105,107,109,111,113,115,117,-1,-1,-1,-1,-1,-1,-1,-1,-1,-1,-1,-1,-1,-1,-1,-1,-1,-1,-1,-1,-1,-1,-1,-1,-1,-1,-1,-1,-1,-1,-1,-1,-1,-1,-1,-1,-1,-1,-1,-1,-1,-1,-1,-1,-1,-1,-1,-1,-1,-1,-1,-1,-1,-1,-1,-1,-1,-1],"loss_changes":[1.11982375E5,5.7407977E4,3.855807E4,1.0235547E4,3.712073E4,2.3905055E4,1.9117395E4,1.0540859E3,4.411492E3,7.9038633E3,6.3580527E3,3.5399082E3,1.630425E3,1.9531473E4,5.6252266E3,0E0,8.726533E2,1.922625E3,2.9934766E3,3.7135352E3,3.9362393E3,3.7828228E3,3.673666E3,1.3743252E3,2.2794941E3,1.58605E3,1.0304739E3,5.498802E3,2.5048252E3,8.661439E3,1.4458594E3,1.3069165E2,8.365869E2,1.4035E3,1.4365635E3,2.853836E3,3.054671E3,4.487385E3,9.0623755E2,5.5143066E2,2.076914E3,1.2180938E3,1.3478914E3,1.2131857E3,8.336885E2,2.429707E2,0E0,2.1357734E3,3.1655103E2,1.3481204E3,2.7781653E3,4.3539893E2,3.9950565E2,4.691032E3,8.6271265E2,4.368812E3,1.9376816E3,4.351117E3,9.447344E2,6.5984863E2,2.0009297E3,0E0,0E0,0E0,0E0,0E0,0E0,0E0,0E0,0E0,0E0,0E0,0E0,0E0,0E0,0E0,0E0,0E0,0E0,0E0,0E0,0E0,0E0,0E0,0E0,0E0,0E0,0E0,0E0,0E0,0E0,0E0,0E0,0E0,0E0,0E0,0E0,0E0,0E0,0E0,0E0,0E0,0E0,0E0,0E0,0E0,0E0,0E0,0E0,0E0,0E0,0E0,0E0,0E0,0E0,0E0,0E0,0E0,0E0],"parents":[2147483647,0,0,1,1,2,2,3,3,4,4,5,5,6,6,7,7,8,8,9,9,10,10,11,11,12,12,13,13,14,14,16,16,17,17,18,18,19,19,20,20,21,21,22,22,23,23,24,24,25,25,26,26,27,27,28,28,29,29,30,30,31,31,32,32,33,33,34,34,35,35,36,36,37,37,38,38,39,39,40,40,41,41,42,42,43,43,44,44,45,45,47,47,48,48,49,49,50,50,51,51,52,52,53,53,54,54,55,55,56,56,57,57,58,58,59,59,60,60],"right_children":[2,4,6,8,10,12,14,16,18,20,22,24,26,28,30,-1,32,34,36,38,40,42,44,46,48,50,52,54,56,58,60,62,64,66,68,70,72,74,76,78,80,82,84,86,88,90,-1,92,94,96,98,100,102,104,106,108,110,112,114,116,118,-1,-1,-1,-1,-1,-1,-1,-1,-1,-1,-1,-1,-1,-1,-1,-1,-1,-1,-1,-1,-1,-1,-1,-1,-1,-1,-1,-1,-1,-1,-1,-1,-1,-1,-1,-1,-1,-1,-1,-1,-1,-1,-1,-1,-1,-1,-1,-1,-1,-1,-1,-1,-1,-1,-1,-1,-1,-1],"split_conditions":[5.879501E0,2.0523438E2,1.5792642E2,-3.4913337E0,2.219773E1,1.5089915E1,1.8416384E1,1.0661107E1,1.4241629E1,1.2819235E1,1.8991669E-1,7.754637E0,1.6939917E1,1.3206582E1,2.6795223E1,1.4849097E1,1.2256378E2,1.7311835E2,1.4629544E2,3.4467383E2,-1.2663332E0,2.7622992E2,3.0551254E1,2.0000002E0,9.700001E0,2.1749481E1,4E-1,1E-1,1.6939917E1,1.4404502E1,2.6282956E2,-4.568417E0,-6.253834E0,1.7032378E2,1.2261157E1,1.252913E2,2.0080684E2,5.1899166E0,2.6336668E0,-1.9496666E0,3E-1,1E-1,2.7086262E1,4.884584E0,2.960255E2,1.4514915E1,-1.1616675E0,1.436109E2,2.1194187E1,1.4773164E1,1.5444081E1,5.5985466E1,1.0536999E2,1.0990322E1,1.3237039E1,1.2096214E1,1.6826147E2,2.960255E2,2.3835749E1,6.9762497E0,2.5056585E1,5.871091E0,1.7223572E0,5.281064E0,1.3179711E1,6.542601E0,1.2545347E1,5.315895E0,5.6003517E-1,3.058468E0,5.8262715E0,2.0458953E0,1.0660931E1,5.847376E0,1.4939127E1,2.9920676E0,-1.9107896E0,4.784275E0,1.0127351E1,2.6646867E0,7.782527E-1,-4.233164E-1,1.06418085E1,1.9300517E0,-1.2162784E0,-5.132014E-1,-2.4001732E0,-2.6106443E0,-4.4700546E0,1.0183338E1,2.1383326E0,3.1639159E0,1.3845148E0,-3.3700693E0,6.0472183E-2,1.190057E0,-2.1367521E0,-2.6312785E0,5.3006697E0,-2.3199496E0,-1.2213334E0,-1.1462456E0,4.3852088E-1,6.5640273E0,2.177172E0,1.5859892E0,-4.7804484E-1,2.773831E0,-1.2550385E0,1.2142231E0,-2.0040126E0,-1.7709631E0,4.117284E-1,-3.0360534E0,-1.7611945E0,2.0871381E-1,-2.4690142E0,-3.6947267E0,9.949348E-1],"split_indices":[0,3,3,0,2,0,2,2,2,2,0,2,0,0,2,0,3,3,3,3,0,3,2,1,1,2,1,1,0,0,3,0,0,3,2,3,3,0,0,0,1,1,2,0,3,0,0,3,2,2,0,3,3,2,2,2,3,3,0,0,0,0,0,0,0,0,0,0,0,0,0,0,0,0,0,0,0,0,0,0,0,0,0,0,0,0,0,0,0,0,0,0,0,0,0,0,0,0,0,0,0,0,0,0,0,0,0,0,0,0,0,0,0,0,0,0,0,0,0],"split_type":[0,0,0,0,0,0,0,0,0,0,0,0,0,0,0,0,0,0,0,0,0,0,0,0,0,0,0,0,0,0,0,0,0,0,0,0,0,0,0,0,0,0,0,0,0,0,0,0,0,0,0,0,0,0,0,0,0,0,0,0,0,0,0,0,0,0,0,0,0,0,0,0,0,0,0,0,0,0,0,0,0,0,0,0,0,0,0,0,0,0,0,0,0,0,0,0,0,0,0,0,0,0,0,0,0,0,0,0,0,0,0,0,0,0,0,0,0,0,0],"sum_hessian":[3.678E3,1.063E3,2.615E3,4.04E2,6.59E2,6.77E2,1.938E3,2.5E1,3.79E2,3.23E2,3.36E2,3.31E2,3.46E2,7.32E2,1.206E3,8E0,1.7E1,1.45E2,2.34E2,7.4E1,2.49E2,5.5E1,2.81E2,9E0,3.22E2,5.9E1,2.87E2,2.03E2,5.29E2,7.6E2,4.46E2,7E0,1E1,1.2E2,2.5E1,1.6E2,7.4E1,6.2E1,1.2E1,3.2E1,2.17E2,5E0,5E1,1.65E2,1.16E2,8E0,1E0,3.13E2,9E0,4.2E1,1.7E1,2.23E2,6.4E1,1.18E2,8.5E1,1.4E2,3.89E2,3.31E2,4.29E2,9.4E1,3.52E2,5E0,2E0,4E0,6E0,1.16E2,4E0,1.6E1,9E0,5.5E1,1.05E2,7.1E1,3E0,5.7E1,5E0,7E0,5E0,3E1,2E0,1.25E2,9.2E1,1E0,4E0,3.1E1,1.9E1,1.25E2,4E1,8.2E1,3.4E1,7E0,1E0,2.27E2,8.6E1,5E0,4E0,2.2E1,2E1,5E0,1.2E1,4.1E1,1.82E2,2E1,4.4E1,2.9E1,8.9E1,2.5E1,6E1,3E1,1.1E2,1.7E1,3.72E2,1.83E2,1.48E2,3.62E2,6.7E1,9E0,8.5E1,3.44E2,8E0],"tree_param":{"num_deleted":"0","num_feature":"4","num_nodes":"119","size_leaf_vector":"1"}},{"base_weights":[7.3441066E-2,4.3601155E0,-3.6475165E0,1.1353997E1,8.1970856E-2,-2.53285E-1,-5.2505817E0,1.5971277E1,8.781335E0,1.0250489E1,-2.046686E0,2.8343258E0,-2.54285E0,-3.0234208E0,-7.4865656E0,2.7933678E1,1.4514215E1,1.3184699E1,6.119321E0,2.0886576E1,7.3391337E0,7.3109186E-1,-5.747417E0,-1.5065247E0,3.8766687E0,-3.2680757E0,-1.003243E0,1.1620778E0,-4.8503523E0,-5.065862E0,-8.611112E0,3.6270336E1,1.6574492E1,1.5073627E1,-1.3552828E0,1.23436985E1,1.2558456E1,4.1039E0,1.03652315E1,2.366183E1,4.819435E0,-5.7375913E0,7.83951E0,5.7654214E0,-1.2457199E0,-3.7439768E0,-9.661716E0,-5.8746403E-1,-4.988514E0,4.950093E0,-3.2897892E0,9.464193E-1,-3.6435661E0,-1.0259021E1,-3.271216E-1,-2.433257E0,5.0362067E0,-6.0826964E0,-2.8084278E0,-1.81854E0,-7.2334495E0,-8.848147E0,1.056223E1,1.3049534E1,6.1763415E0,2.5809E0,7.804194E0,4.3323126E0,9.162687E0,-3.801552E0,6.5188785E0,3.975953E0,-1.206968E0,1.6460439E0,-8.159993E-1,3.6138337E0,7.405827E-1,2.733306E0,8.16868E0,4.1678147E0,-1.6376113E0,1.9085759E0,5.167699E0,5.3782954E0,1.1903812E0,-5.674079E-1,3.359474E0,-6.54184E-1,-2.7079926E0,-2.9529183E0,1.9781531E0,1.465214E0,-7.188713E-1,-4.4065967E0,1.5711441E0,7.6988995E-1,-2.4624767E0,-1.5420218E0,1.5262029E0,-1.1898478E0,2.5755474E-1,-7.997381E-1,-5.15574E0,-8.165257E-1,3.6814675E-1,1.3997085E0,-1.3963412E0,2.40057E0,2.4624479E-1,-2.3058155E0,-1.0240254E0,-1.2582593E0,2.013844E0,-2.320449E0,8.1426346E-1,3.1421244E-1,-2.383227E0,-2.9163055E0,-1.2657307E0,4.6116724E0,1.8844223E-1],"categories":[],"categories_nodes":[],"categories_segments":[],"categories_sizes":[],"default_left":[0,0,0,0,0,0,0,0,0,0,0,0,0,0,0,0,0,0,0,0,0,0,0,0,0,0,0,0,0,0,0,0,0,0,0,0,0,0,0,0,0,0,0,0,0,0,0,0,0,0,0,0,0,0,0,0,0,0,0,0,0,0,0,0,0,0,0,0,0,0,0,0,0,0,0,0,0,0,0,0,0,0,0,0,0,0,0,0,0,0,0,0,0,0,0,0,0,0,0,0,0,0,0,0,0,0,0,0,0,0,0,0,0,0,0,0,0,0,0,0,0],"id":3,"left_children":[1,3,5,7,9,11,13,15,17,19,21,23,25,27,29,31,33,35,37,39,41,43,45,47,49,51,53,55,57,59,61,63,65,67,69,-1,71,73,75,77,79,-1,81,83,85,87,89,91,-1,93,95,97,99,101,103,105,107,109,111,113,115,117,119,-1,-1,-1,-1,-1,-1,-1,-1,-1,-1,-1,-1,-1,-1,-1,-1,-1,-1,-1,-1,-1,-1,-1,-1,-1,-1,-1,-1,-1,-1,-1,-1,-1,-1,-1,-1,-1,-1,-1,-1,-1,-1,-1,-1,-1,-1,-1,-1,-1,-1,-1,-1,-1,-1,-1,-1,-1,-1],"loss_changes":[5.8697914E4,5.1163703E4,1.0717783E4,7.5690312E3,2.3008273E4,4.482065E3,6.640465E3,3.6208828E3,4.830758E3,5.5443477E3,9.040154E3,1.2274973E3,4.0315015E2,5.144163E3,1.7720781E3,1.671582E3,1.8669648E3,2.2323984E3,2.2080312E3,1.6249883E3,2.0832915E3,5.012999E3,2.9202842E3,7.268202E2,1.6932825E3,3.9432642E2,7.3509143E2,2.8676565E3,1.1605713E3,1.4931606E3,2.1567773E3,5.780762E2,6.791631E2,1.5257773E3,2.3652844E3,0E0,1.8388633E3,1.7135581E3,1.0852178E3,1.4647578E3,7.286313E2,0E0,1.8875322E3,3.0331855E3,2.929603E3,2.0532563E3,4.3928223E2,5.164363E2,0E0,1.1480288E3,8.5635114E2,5.5542694E2,3.3308618E2,3.7495905E2,4.164731E2,1.7089229E3,1.2310857E3,1.2191865E3,2.3767312E3,2.3540793E3,7.6156104E2,1.7731953E3,2.7704248E2,0E0,0E0,0E0,0E0,0E0,0E0,0E0,0E0,0E0,0E0,0E0,0E0,0E0,0E0,0E0,0E0,0E0,0E0,0E0,0E0,0E0,0E0,0E0,0E0,0E0,0E0,0E0,0E0,0E0,0E0,0E0,0E0,0E0,0E0,0E0,0E0,0E0,0E0,0E0,0E0,0E0,0E0,0E0,0E0,0E0,0E0,0E0,0E0,0E0,0E0,0E0,0E0,0E0,0E0,0E0,0E0,0E0,0E0],"parents":[2147483647,0,0,1,1,2,2,3,3,4,4,5,5,6,6,7,7,8,8,9,9,10,10,11,11,12,12,13,13,14,14,15,15,16,16,17,17,18,18,19,19,20,20,21,21,22,22,23,23,24,24,25,25,26,26,27,27,28,28,29,29,30,30,31,31,32,32,33,33,34,34,36,36,37,37,38,38,39,39,40,40,42,42,43,43,44,44,45,45,46,46,47,47,49,49,50,50,51,51,52,52,53,53,54,54,55,55,56,56,57,57,58,58,59,59,60,60,61,61,62,62],"right_children":[2,4,6,8,10,12,14,16,18,20,22,24,26,28,30,32,34,36,38,40,42,44,46,48,50,52,54,56,58,60,62,64,66,68,70,-1,72,74,76,78,80,-1,82,84,86,88,90,92,-1,94,96,98,100,102,104,106,108,110,112,114,116,118,120,-1,-1,-1,-1,-1,-1,-1,-1,-1,-1,-1,-1,-1,-1,-1,-1,-1,-1,-1,-1,-1,-1,-1,-1,-1,-1,-1,-1,-1,-1,-1,-1,-1,-1,-1,-1,-1,-1,-1,-1,-1,-1,-1,-1,-1,-1,-1,-1,-1,-1,-1,-1,-1,-1,-1,-1,-1,-1],"split_conditions":[1.0512834E1,1.8416384E1,1.7667542E2,1.5305006E2,1.4629544E2,1.6939917E1,1.9770523E1,-1.658E0,1.2738099E1,-1.0830001E0,2.7691935E1,9.269607E1,1E-1,1.5761668E1,2E-1,1.02344826E2,9.979501E0,-3.4913337E0,3.1893372E2,6E-1,1.8584509E1,2.7128334E0,3.511061E1,2.0150354E1,2.804305E1,9.290511E0,1.7667917E1,3.0173026E2,6E-1,1.5869084E1,3.4893884E2,-2.6154168E0,1.3370082E2,1.7935081E1,1.0367917E1,1.23436985E1,8.400001E0,1.5E0,1.7771753E1,1.2156051E2,-1.9496666E0,-5.7375913E0,8.577415E0,2.4520465E2,3.4223306E2,3.3E0,3.2851068E2,1.0577918E1,-4.988514E0,1.0640833E1,1.3458668E1,8.843081E1,2.717833E1,1.436109E2,1.3035587E2,1.3237039E1,3.33435E2,2.1630417E1,3.358398E2,2.8679785E2,2.225104E2,2.2015837E1,1.9203333E1,1.3049534E1,6.1763415E0,2.5809E0,7.804194E0,4.3323126E0,9.162687E0,-3.801552E0,6.5188785E0,3.975953E0,-1.206968E0,1.6460439E0,-8.159993E-1,3.6138337E0,7.405827E-1,2.733306E0,8.16868E0,4.1678147E0,-1.6376113E0,1.9085759E0,5.167699E0,5.3782954E0,1.1903812E0,-5.674079E-1,3.359474E0,-6.54184E-1,-2.7079926E0,-2.9529183E0,1.9781531E0,1.465214E0,-7.188713E-1,-4.4065967E0,1.5711441E0,7.6988995E-1,-2.4624767E0,-1.5420218E0,1.5262029E0,-1.1898478E0,2.5755474E-1,-7.997381E-1,-5.15574E0,-8.165257E-1,3.6814675E-1,1.3997085E0,-1.3963412E0,2.40057E0,2.4624479E-1,-2.3058155E0,-1.0240254E0,-1.2582593E0,2.013844E0,-2.320449E0,8.1426346E-1,3.1421244E-1,-2.383227E0,-2.9163055E0,-1.2657307E0,4.6116724E0,1.8844223E-1],"split_indices":[0,2,3,3,3,0,2,0,2,0,2,3,1,0,1,3,0,0,3,1,2,0,2,2,2,2,0,3,1,0,3,0,3,2,0,0,1,1,2,3,0,0,0,3,3,1,3,3,0,0,0,3,0,3,3,2,3,0,3,3,3,0,0,0,0,0,0,0,0,0,0,0,0,0,0,0,0,0,0,0,0,0,0,0,0,0,0,0,0,0,0,0,0,0,0,0,0,0,0,0,0,0,0,0,0,0,0,0,0,0,0,0,0,0,0,0,0,0,0,0,0],"split_type":[0,0,0,0,0,0,0,0,0,0,0,0,0,0,0,0,0,0,0,0,0,0,0,0,0,0,0,0,0,0,0,0,0,0,0,0,0,0,0,0,0,0,0,0,0,0,0,0,0,0,0,0,0,0,0,0,0,0,0,0,0,0,0,0,0,0,0,0,0,0,0,0,0,0,0,0,0,0,0,0,0,0,0,0,0,0,0,0,0,0,0,0,0,0,0,0,0,0,0,0,0,0,0,0,0,0,0,0,0,0,0,0,0,0,0,0,0,0,0,0,0],"sum_hessian":[3.678E3,1.709E3,1.969E3,6.48E2,1.061E3,6.32E2,1.337E3,2.3E2,4.18E2,1.83E2,8.78E2,2.69E2,3.63E2,6.71E2,6.66E2,2.3E1,2.07E2,1.56E2,2.62E2,3.8E1,1.45E2,5.02E2,3.76E2,5.2E1,2.17E2,2.46E2,1.17E2,2.04E2,4.67E2,2.13E2,4.53E2,1.2E1,1.1E1,2E2,7E0,2E0,1.54E2,1.79E2,8.3E1,3.2E1,6E0,2E0,1.43E2,1.41E2,3.61E2,2.5E2,1.26E2,5E1,2E0,1.89E2,2.8E1,2E1,2.26E2,7E0,1.1E2,1.06E2,9.8E1,2.9E2,1.77E2,8.6E1,1.27E2,4.48E2,5E0,7E0,5E0,7E0,4E0,1.94E2,6E0,5E0,2E0,1.48E2,6E0,1.49E2,3E1,6.8E1,1.5E1,7E0,2.5E1,3E0,3E0,1.25E2,1.8E1,1.7E1,1.24E2,3.44E2,1.7E1,1.94E2,5.6E1,1.25E2,1E0,1.2E1,3.8E1,2E0,1.87E2,1.3E1,1.5E1,8E0,1.2E1,2.11E2,1.5E1,4E0,3E0,4.3E1,6.7E1,2.5E1,8.1E1,5.7E1,4.1E1,1.8E2,1.1E2,1.55E2,2.2E1,3.7E1,4.9E1,1E1,1.17E2,3.76E2,7.2E1,3E0,2E0],"tree_param":{"num_deleted":"0","num_feature":"4","num_nodes":"121","size_leaf_vector":"1"}},{"base_weights":[6.959623E-2,9.830274E0,-8.0619735E-1,1.5619659E1,7.1920233E0,1.2870913E0,-3.0267115E0,1.825251E1,8.031722E0,5.9244576E0,1.6768805E1,5.310766E0,-1.5209233E0,-2.2296245E0,-6.2425346E0,1.4660454E1,2.6320026E1,-3.5351532E0,1.4363312E1,6.2867303E0,-5.5171494E0,2.1130323E1,8.549645E0,7.063565E0,2.513693E0,3.9568207E0,-2.8126304E0,3.9798042E-1,-2.9603271E0,-2.9309132E0,-7.6180134E0,1.8704622E1,6.431676E0,3.8332256E1,1.3007087E1,-1.1245476E1,5.461228E0,8.4787855E0,4.2125444E0,6.8215785E0,-8.288215E0,2.478847E1,1.1511695E1,5.9213495E0,9.3501884E-1,1.7297363E1,6.216442E0,5.4594536E0,-3.2530063E-1,-1.0726836E1,4.5574155E0,-4.360061E-1,-4.460827E0,5.4094515E0,-1.2130332E0,-1.3514034E0,-3.759309E0,-1.0959415E1,-1.7765766E0,-8.183869E0,1.0004519E0,4.2173634E0,9.44054E0,-2.104042E0,2.2905374E0,1.3405376E1,2.5845873E0,1.8920083E0,8.631771E0,1.195958E0,-4.197294E0,6.1101153E-2,6.645193E0,3.4416666E0,1.6834639E0,-4.130427E0,-2.2088586E-1,3.8657663E0,8.41462E0,-8.951798E-1,4.5022826E0,1.1504986E0,-6.596137E-1,3.5360258E0,8.174119E0,2.4292307E0,9.786153E-1,2.8122659E0,9.6528065E-1,-2.6249878E0,1.9935164E-1,3.9103627E0,-4.795019E0,1.7526022E0,-8.194308E-1,1.9716705E-1,-1.5264415E0,-1.1042724E0,-2.4245496E0,1.018522E0,4.1941705E0,-2.4486558E-1,-5.3862276E0,-4.4635576E-1,4.382633E0,-1.3997045E0,-6.220058E-1,-4.6103125E0,5.097293E-1,5.079565E0,-7.270759E-1,-2.9102287E0,-1.9686416E0,-4.8568878E-1,3.6053293E0],"categories":[],"categories_nodes":[],"categories_segments":[],"categories_sizes":[],"default_left":[0,0,0,0,0,0,0,0,0,0,0,0,0,0,0,0,0,0,0,0,0,0,0,0,0,0,0,0,0,0,0,0,0,0,0,0,0,0,0,0,0,0,0,0,0,0,0,0,0,0,0,0,0,0,0,0,0,0,0,0,0,0,0,0,0,0,0,0,0,0,0,0,0,0,0,0,0,0,0,0,0,0,0,0,0,0,0,0,0,0,0,0,0,0,0,0,0,0,0,0,0,0,0,0,0,0,0,0,0,0,0,0,0,0,0],"id":4,"left_children":[1,3,5,7,9,11,13,15,17,19,21,23,25,27,29,31,33,35,37,39,-1,41,43,45,47,49,51,53,55,57,59,61,63,65,67,69,-1,-1,71,73,75,77,79,-1,81,83,85,87,89,91,93,95,97,99,101,103,105,107,109,111,113,-1,-1,-1,-1,-1,-1,-1,-1,-1,-1,-1,-1,-1,-1,-1,-1,-1,-1,-1,-1,-1,-1,-1,-1,-1,-1,-1,-1,-1,-1,-1,-1,-1,-1,-1,-1,-1,-1,-1,-1,-1,-1,-1,-1,-1,-1,-1,-1,-1,-1,-1,-1,-1,-1],"loss_changes":[3.145726E4,4.5156426E3,1.5700789E4,1.7313242E3,2.4498857E3,1.9656234E4,4.1873145E3,1.6136836E3,1.9549313E3,1.7628315E3,6.796958E2,3.4876777E3,7.26366E3,2.5259746E3,1.4580693E3,1.543626E3,2.6997715E3,1.8808794E3,2.2794487E3,1.498685E3,0E0,2.4243799E2,8.3348334E2,3.698289E3,2.3183257E3,1.7773965E3,3.2492842E3,2.32367E3,1.3177002E3,8.7948615E2,1.1249766E3,1.5148604E3,3.4479858E2,1.502749E3,9.805243E2,3.9033154E2,0E0,0E0,7.8651587E2,9.429336E2,2.795481E2,2.6622559E1,3.4883435E2,0E0,7.204628E1,1.4882002E3,2.2353604E3,1.1634172E3,1.1899208E3,1.2075609E3,1.7856016E3,1.7376182E3,1.3540557E3,1.1611179E3,1.4335406E3,7.687046E2,1.0401338E3,6.957406E2,1.0820273E3,4.6524023E2,4.523399E2,0E0,0E0,0E0,0E0,0E0,0E0,0E0,0E0,0E0,0E0,0E0,0E0,0E0,0E0,0E0,0E0,0E0,0E0,0E0,0E0,0E0,0E0,0E0,0E0,0E0,0E0,0E0,0E0,0E0,0E0,0E0,0E0,0E0,0E0,0E0,0E0,0E0,0E0,0E0,0E0,0E0,0E0,0E0,0E0,0E0,0E0,0E0,0E0,0E0,0E0,0E0,0E0,0E0,0E0],"parents":[2147483647,0,0,1,1,2,2,3,3,4,4,5,5,6,6,7,7,8,8,9,9,10,10,11,11,12,12,13,13,14,14,15,15,16,16,17,17,18,18,19,19,21,21,22,22,23,23,24,24,25,25,26,26,27,27,28,28,29,29,30,30,31,31,32,32,33,33,34,34,35,35,38,38,39,39,40,40,41,41,42,42,44,44,45,45,46,46,47,47,48,48,49,49,50,50,51,51,52,52,53,53,54,54,55,55,56,56,57,57,58,58,59,59,60,60],"right_children":[2,4,6,8,10,12,14,16,18,20,22,24,26,28,30,32,34,36,38,40,-1,42,44,46,48,50,52,54,56,58,60,62,64,66,68,70,-1,-1,72,74,76,78,80,-1,82,84,86,88,90,92,94,96,98,100,102,104,106,108,110,112,114,-1,-1,-1,-1,-1,-1,-1,-1,-1,-1,-1,-1,-1,-1,-1,-1,-1,-1,-1,-1,-1,-1,-1,-1,-1,-1,-1,-1,-1,-1,-1,-1,-1,-1,-1,-1,-1,-1,-1,-1,-1,-1,-1,-1,-1,-1,-1,-1,-1,-1,-1,-1,-1,-1],"split_conditions":[5.420001E-1,1.3903781E2,1.291908E1,-6.913333E-1,3.4303375E2,1.9416653E1,2.4863466E1,3E-1,8.296004E1,3.4096255E2,1.835647E1,1E-1,1.6547855E2,1.5761668E1,2.225104E2,-1.3892502E0,9.0000004E-1,3.1000001E0,1.4241629E1,3.374796E1,-5.5171494E0,-1.0830001E0,-4.568417E0,8.707238E0,5.879501E0,9.269607E1,2.5711662E1,1.3684735E1,1.7466608E2,1.413258E2,2.5056585E1,1.2793333E2,4.6927953E0,2.7595823E1,3.1000001E0,9.904906E0,5.461228E0,8.4787855E0,2.628E1,1.3004922E1,-1.2663332E0,-3.0362504E0,-5.6633335E-1,5.9213495E0,2E-1,2.5023747E2,7.799167E0,1.8457382E2,2E-1,2.0150354E1,1.9000001E0,1.0367917E1,5.1E0,3.1554044E2,3.4807928E2,2.4633049E1,3.1363144E2,3E-1,1.4295021E2,2.933534E2,3.196946E2,4.2173634E0,9.44054E0,-2.104042E0,2.2905374E0,1.3405376E1,2.5845873E0,1.8920083E0,8.631771E0,1.195958E0,-4.197294E0,6.1101153E-2,6.645193E0,3.4416666E0,1.6834639E0,-4.130427E0,-2.2088586E-1,3.8657663E0,8.41462E0,-8.951798E-1,4.5022826E0,1.1504986E0,-6.596137E-1,3.5360258E0,8.174119E0,2.4292307E0,9.786153E-1,2.8122659E0,9.6528065E-1,-2.6249878E0,1.9935164E-1,3.9103627E0,-4.795019E0,1.7526022E0,-8.194308E-1,1.9716705E-1,-1.5264415E0,-1.1042724E0,-2.4245496E0,1.018522E0,4.1941705E0,-2.4486558E-1,-5.3862276E0,-4.4635576E-1,4.382633E0,-1.3997045E0,-6.220058E-1,-4.6103125E0,5.097293E-1,5.079565E0,-7.270759E-1,-2.9102287E0,-1.9686416E0,-4.8568878E-1,3.6053293E0],"split_indices":[0,3,0,0,3,2,2,1,3,3,2,1,3,0,3,0,1,1,2,2,0,0,0,2,0,3,2,2,3,3,0,3,3,2,1,2,0,0,2,2,0,0,0,0,1,3,0,3,1,2,1,0,1,3,3,2,3,1,3,3,3,0,0,0,0,0,0,0,0,0,0,0,0,0,0,0,0,0,0,0,0,0,0,0,0,0,0,0,0,0,0,0,0,0,0,0,0,0,0,0,0,0,0,0,0,0,0,0,0,0,0,0,0,0,0],"split_type":[0,0,0,0,0,0,0,0,0,0,0,0,0,0,0,0,0,0,0,0,0,0,0,0,0,0,0,0,0,0,0,0,0,0,0,0,0,0,0,0,0,0,0,0,0,0,0,0,0,0,0,0,0,0,0,0,0,0,0,0,0,0,0,0,0,0,0,0,0,0,0,0,0,0,0,0,0,0,0,0,0,0,0,0,0,0,0,0,0,0,0,0,0,0,0,0,0,0,0,0,0,0,0,0,0,0,0,0,0,0,0,0,0,0,0],"sum_hessian":[3.678E3,3.02E2,3.376E3,9.3E1,2.09E2,1.738E3,1.638E3,6.8E1,2.5E1,1.86E2,2.3E1,7.14E2,1.024E3,1.314E3,3.24E2,4.9E1,1.9E1,9E0,1.6E1,1.84E2,2E0,1.4E1,9E0,4.38E2,2.76E2,1.95E2,8.29E2,2.86E2,1.028E3,9.6E1,2.28E2,3.2E1,1.7E1,9E0,1E1,7E0,2E0,6E0,1E1,1.78E2,6E0,9E0,5E0,3E0,6E0,3.2E1,4.06E2,1.35E2,1.41E2,7E0,1.88E2,3.4E2,4.89E2,6.9E1,2.17E2,3.42E2,6.86E2,1.1E1,8.5E1,2.14E2,1.4E1,2.5E1,7E0,1E0,1.6E1,7E0,2E0,8E0,2E0,1E0,6E0,9E0,1E0,3.5E1,1.43E2,3E0,3E0,3E0,6E0,1E0,4E0,3E0,3E0,2.2E1,1E1,2.47E2,1.59E2,4.8E1,8.7E1,1.4E1,1.27E2,1E0,6E0,1.6E2,2.8E1,2.76E2,6.4E1,4.04E2,8.5E1,5.7E1,1.2E1,2.13E2,4E0,3.4E2,2E0,4.45E2,2.41E2,8E0,3E0,2E0,8.3E1,1.08E2,1.06E2,1.2E1,2E0],"tree_param":{"num_deleted":"0","num_feature":"4","num_nodes":"115","size_leaf_vector":"1"}},{"base_weights":[7.2421655E-2,7.1305633E0,-5.6088877E-1,1.1550817E1,5.118018E0,2.5319948E0,-1.4692307E0,1.3241613E1,5.755678E0,4.121755E0,1.2667318E1,4.7376523E0,-8.9848346E-1,2.7761292E0,-1.988551E0,1.0465441E1,1.9075397E1,-2.7792015E0,9.663388E0,4.404894E0,-4.4137197E0,1.5850392E1,6.625976E0,6.2085333E0,2.4002366E0,-3.9837925E0,-1.9248426E-1,7.6741776E0,7.9369736E-1,-2.6258774E0,2.3671314E-1,1.3893744E1,4.9062557E0,2.8431576E1,1.0410999E1,-3.296172E0,4.3689823E0,5.773568E0,3.5584419E0,4.803737E0,-6.4233656E0,5.040558E0,3.794781E-1,4.589046E0,7.246404E-1,5.402697E0,1.5632989E1,7.492687E-1,5.9169736E0,-5.422436E0,3.1762109E0,-4.7957315E0,-6.277382E-2,9.725793E0,-6.4522305E0,-1.4946872E0,2.440818E0,1.4063791E0,-3.0999572E0,1.9360002E0,-2.4180195E0,3.1037138E0,7.3741417E0,3.1753583E0,7.410789E-1,9.886464E0,2.0676699E0,5.1664114E0,6.340027E-1,4.460312E-2,5.6484137E0,2.2668896E0,9.61851E-1,-3.2010808E0,-1.7118645E-1,8.9163667E-1,-5.112004E-1,2.4415803E0,-2.738013E-1,-6.246781E-1,7.771416E0,7.391664E-1,-8.093428E-1,3.2270672E0,-1.3607216E-1,-4.363772E0,-1.1969934E0,2.8671045E0,-8.0114824E-1,4.3939477E-1,-3.069959E-1,1.9851457E0,5.6052294E0,-2.532156E0,2.0145986E0,1.5503929E0,-1.03837E0,1.5121992E0,-3.0177563E-1,1.3327348E0,-5.93634E-1,-5.1633286E-1,-1.1476442E0,1.8741307E0,2.3976585E-1,-1.0510352E0,4.7518718E-1],"categories":[],"categories_nodes":[],"categories_segments":[],"categories_sizes":[],"default_left":[0,0,0,0,0,0,0,0,0,0,0,0,0,0,0,0,0,0,0,0,0,0,0,0,0,0,0,0,0,0,0,0,0,0,0,0,0,0,0,0,0,0,0,0,0,0,0,0,0,0,0,0,0,0,0,0,0,0,0,0,0,0,0,0,0,0,0,0,0,0,0,0,0,0,0,0,0,0,0,0,0,0,0,0,0,0,0,0,0,0,0,0,0,0,0,0,0,0,0,0,0,0,0,0,0,0,0],"id":5,"left_children":[1,3,5,7,9,11,13,15,17,19,21,23,25,27,29,31,33,35,37,39,-1,41,43,45,47,49,51,53,55,57,59,61,63,65,67,-1,-1,-1,69,71,73,-1,-1,-1,75,77,79,81,83,85,87,-1,89,91,93,95,97,99,101,103,105,-1,-1,-1,-1,-1,-1,-1,-1,-1,-1,-1,-1,-1,-1,-1,-1,-1,-1,-1,-1,-1,-1,-1,-1,-1,-1,-1,-1,-1,-1,-1,-1,-1,-1,-1,-1,-1,-1,-1,-1,-1,-1,-1,-1,-1,-1],"loss_changes":[1.6449107E4,2.6363594E3,9.49105E3,8.4483496E2,1.5272173E3,5.8077314E3,5.761997E3,9.664512E2,7.939488E2,1.0620181E3,3.5649634E2,1.5906709E3,6.5487915E2,2.7612727E3,3.3008174E3,9.038213E2,1.4874438E3,1.2987915E3,8.6746265E2,8.2982983E2,0E0,1.8691089E2,5.006109E2,2.087586E3,1.0522621E3,5.9406146E2,5.0294083E2,2.439273E3,7.725744E2,3.4624648E3,2.3459695E3,9.211201E2,2.643302E2,7.471577E2,6.982367E2,0E0,0E0,0E0,5.69924E2,7.629082E2,1.6790356E2,0E0,0E0,0E0,4.3272797E1,4.5861606E3,4.0571997E3,7.454503E2,1.7931884E3,5.5620483E2,3.985887E2,0E0,3.6095297E2,1.8814316E3,3.4467093E2,1.1446968E3,1.0714275E3,1.9718083E3,1.613041E3,1.548554E3,8.87355E2,0E0,0E0,0E0,0E0,0E0,0E0,0E0,0E0,0E0,0E0,0E0,0E0,0E0,0E0,0E0,0E0,0E0,0E0,0E0,0E0,0E0,0E0,0E0,0E0,0E0,0E0,0E0,0E0,0E0,0E0,0E0,0E0,0E0,0E0,0E0,0E0,0E0,0E0,0E0,0E0,0E0,0E0,0E0,0E0,0E0,0E0],"parents":[2147483647,0,0,1,1,2,2,3,3,4,4,5,5,6,6,7,7,8,8,9,9,10,10,11,11,12,12,13,13,14,14,15,15,16,16,17,17,18,18,19,19,21,21,22,22,23,23,24,24,25,25,26,26,27,27,28,28,29,29,30,30,31,31,32,32,33,33,34,34,38,38,39,39,40,40,44,44,45,45,46,46,47,47,48,48,49,49,50,50,52,52,53,53,54,54,55,55,56,56,57,57,58,58,59,59,60,60],"right_children":[2,4,6,8,10,12,14,16,18,20,22,24,26,28,30,32,34,36,38,40,-1,42,44,46,48,50,52,54,56,58,60,62,64,66,68,-1,-1,-1,70,72,74,-1,-1,-1,76,78,80,82,84,86,88,-1,90,92,94,96,98,100,102,104,106,-1,-1,-1,-1,-1,-1,-1,-1,-1,-1,-1,-1,-1,-1,-1,-1,-1,-1,-1,-1,-1,-1,-1,-1,-1,-1,-1,-1,-1,-1,-1,-1,-1,-1,-1,-1,-1,-1,-1,-1,-1,-1,-1,-1,-1,-1],"split_conditions":[5.420001E-1,1.3903781E2,1.5208258E2,-5.6633335E-1,3.4303375E2,1.5089915E1,1.2261157E1,3E-1,8.296004E1,3.4096255E2,1.835647E1,1.9416653E1,4.3071095E1,6.9762497E0,3.1592096E2,-1.658E0,9.0000004E-1,7E-1,1.4241629E1,3.374796E1,-4.4137197E0,8.875009E-2,-4.568417E0,1.4183666E1,2.6178707E1,8.000001E-1,7.072878E0,3.4467383E2,2.5156494E2,3.6565835E0,1.5869084E1,1.2793333E2,1.0464797E1,2.7595823E1,1.8089775E1,-3.296172E0,4.3689823E0,5.773568E0,2.628E1,-1.3892502E0,-1.2663332E0,5.040558E0,3.794781E-1,4.589046E0,2E-1,9.979501E0,1.1367109E1,2.3770906E1,1.436109E2,1.6457499E1,1.7409582E1,-4.7957315E0,1.3527572E1,5.4044995E0,5.522083E0,1.7032378E2,1.8724165E1,2.4363249E1,1E-1,1.609969E1,2.2514921E1,3.1037138E0,7.3741417E0,3.1753583E0,7.410789E-1,9.886464E0,2.0676699E0,5.1664114E0,6.340027E-1,4.460312E-2,5.6484137E0,2.2668896E0,9.61851E-1,-3.2010808E0,-1.7118645E-1,8.9163667E-1,-5.112004E-1,2.4415803E0,-2.738013E-1,-6.246781E-1,7.771416E0,7.391664E-1,-8.093428E-1,3.2270672E0,-1.3607216E-1,-4.363772E0,-1.1969934E0,2.8671045E0,-8.0114824E-1,4.3939477E-1,-3.069959E-1,1.9851457E0,5.6052294E0,-2.532156E0,2.0145986E0,1.5503929E0,-1.03837E0,1.5121992E0,-3.0177563E-1,1.3327348E0,-5.93634E-1,-5.1633286E-1,-1.1476442E0,1.8741307E0,2.3976585E-1,-1.0510352E0,4.7518718E-1],"split_indices":[0,3,3,0,3,0,2,1,3,3,2,2,3,0,3,0,1,1,2,2,0,0,0,0,2,1,2,3,3,0,0,3,2,2,2,0,0,0,2,0,0,0,0,0,1,0,2,2,3,0,0,0,2,0,0,3,0,2,1,2,0,0,0,0,0,0,0,0,0,0,0,0,0,0,0,0,0,0,0,0,0,0,0,0,0,0,0,0,0,0,0,0,0,0,0,0,0,0,0,0,0,0,0,0,0,0,0],"split_type":[0,0,0,0,0,0,0,0,0,0,0,0,0,0,0,0,0,0,0,0,0,0,0,0,0,0,0,0,0,0,0,0,0,0,0,0,0,0,0,0,0,0,0,0,0,0,0,0,0,0,0,0,0,0,0,0,0,0,0,0,0,0,0,0,0,0,0,0,0,0,0,0,0,0,0,0,0,0,0,0,0,0,0,0,0,0,0,0,0,0,0,0,0,0,0,0,0,0,0,0,0,0,0,0,0,0,0],"sum_hessian":[3.678E3,3.02E2,3.376E3,9.3E1,2.09E2,7.66E2,2.61E3,7.1E1,2.2E1,1.86E2,2.3E1,4.66E2,3E2,2.84E2,2.326E3,5E1,2.1E1,7E0,1.5E1,1.84E2,2E0,1.4E1,9E0,2.85E2,1.81E2,5.5E1,2.45E2,8.1E1,2.03E2,1.808E3,5.18E2,3E1,2E1,9E0,1.2E1,5E0,2E0,5E0,1E1,1.78E2,6E0,1.3E1,1E0,3E0,6E0,2.64E2,2.1E1,1.24E2,5.7E1,4.6E1,9E0,1E0,2.44E2,7.1E1,1E1,8.5E1,1.18E2,1.9E2,1.618E3,3.16E2,2.02E2,2.4E1,6E0,5E0,1.5E1,7E0,2E0,6E0,6E0,9E0,1E0,6.4E1,1.14E2,3E0,3E0,3E0,3E0,1.84E2,8E1,8E0,1.3E1,8.3E1,4.1E1,3.2E1,2.5E1,5E0,4.1E1,4E0,5E0,9.4E1,1.5E2,5.4E1,1.7E1,9E0,1E0,1.9E1,6.6E1,6.7E1,5.1E1,1E2,9E1,5.59E2,1.059E3,6.5E1,2.51E2,1.59E2,4.3E1],"tree_param":{"num_deleted":"0","num_feature":"4","num_nodes":"107","size_leaf_vector":"1"}},{"base_weights":[6.812015E-2,5.158128E0,-3.8859895E-1,8.560978E0,3.610385E0,1.363334E0,-1.228712E0,1.4626324E1,7.2241864E0,2.1611598E0,7.197428E0,3.4520278E0,-5.80669E-1,-4.904425E-1,-2.9574683E0,9.589854E0,2.3788588E1,-5.4288073E0,7.7808046E0,4.4138126E0,-3.2431736E0,1.9486977E1,4.0408564E0,3.7135737E0,-1.0467406E1,-3.139453E0,-2.8910318E-1,1.3385054E0,-1.6086617E0,-4.326408E0,-1.8674755E0,1.1528357E1,2.830759E0,8.650591E0,5.402596E-1,5.390751E0,1.2095694E1,3.4608643E0,1.9878298E1,4.7005124E0,-8.7130575E0,2.9343197E1,1.0890968E1,-3.1465614E0,4.882289E0,2.1302467E1,3.5700288E0,-4.4928956E0,-4.965412E0,6.1769505E0,-4.1349053E0,8.550628E-1,-1.5446252E0,9.078908E-1,8.58159E0,-8.956282E-2,-2.2652037E0,-1.1581677E0,-5.6873164E0,-1.1074737E0,-4.089053E0,8.2607347E-1,3.684302E0,6.0508348E-2,1.0919647E0,2.0021815E0,-2.4017985E0,-8.174482E-2,4.69273E0,1.3810477E0,-2.2534995E0,7.683645E0,-1.3186432E0,3.1168675E0,-3.9920175E0,-4.975433E0,-1.7022731E0,1.15134E1,-1.0194008E0,-9.7805333E-1,4.845414E0,1.8209634E0,-8.313172E-1,1.9477998E0,9.859781E0,4.912428E0,1.0161834E0,-1.664142E0,-3.0851614E-1,2.2237E0,7.412369E-1,-1.6849774E0,4.1867134E-1,1.6759048E-1,3.5483341E0,1.945558E0,-5.219243E-1,1.7016633E0,1.1180443E-1,4.8882403E0,-2.6830168E-2,-6.258571E-1,6.6643804E-1,-6.528777E-1,-4.2259626E0,-4.302592E0,-7.068829E-2,-1.3382224E0,-2.700794E0,2.142552E-1,-8.577482E-1,-2.195432E0,4.757037E-1],"categories":[],"categories_nodes":[],"categories_segments":[],"categories_sizes":[],"default_left":[0,0,0,0,0,0,0,0,0,0,0,0,0,0,0,0,0,0,0,0,0,0,0,0,0,0,0,0,0,0,0,0,0,0,0,0,0,0,0,0,0,0,0,0,0,0,0,0,0,0,0,0,0,0,0,0,0,0,0,0,0,0,0,0,0,0,0,0,0,0,0,0,0,0,0,0,0,0,0,0,0,0,0,0,0,0,0,0,0,0,0,0,0,0,0,0,0,0,0,0,0,0,0,0,0,0,0,0,0,0,0,0,0],"id":6,"left_children":[1,3,5,7,9,11,13,15,17,19,21,23,25,27,29,31,33,-1,35,37,39,41,43,45,47,49,51,53,55,57,59,61,63,-1,-1,65,67,69,71,73,75,77,79,-1,81,83,85,-1,87,89,91,93,95,97,99,101,103,105,107,109,111,-1,-1,-1,-1,-1,-1,-1,-1,-1,-1,-1,-1,-1,-1,-1,-1,-1,-1,-1,-1,-1,-1,-1,-1,-1,-1,-1,-1,-1,-1,-1,-1,-1,-1,-1,-1,-1,-1,-1,-1,-1,-1,-1,-1,-1,-1,-1,-1,-1,-1,-1,-1],"loss_changes":[8.554589E3,1.5649136E3,4.9720166E3,6.5649805E2,1.0761162E3,4.448172E3,2.9123152E3,5.1019873E2,1.2542036E3,1.8526018E3,2.248827E3,1.9610933E3,4.22851E2,3.2764614E3,1.01104834E3,1.2459619E2,5.029004E2,0E0,7.391948E2,1.5080474E3,1.9962527E3,6.971138E2,6.5025775E2,1.2343174E3,1.7371643E2,5.634351E2,7.3538525E2,1.8885472E3,9.9116504E2,1.295542E3,6.404413E2,2.5622437E1,7.774803E0,0E0,0E0,9.473391E2,1.1886631E3,1.3134069E3,9.4767065E2,2.0846865E3,5.5175244E2,1.6094595E3,6.481832E2,0E0,4.440044E2,4.716233E2,1.1520156E3,0E0,8.037048E0,9.15686E0,4.4214313E2,8.6509436E2,3.9358142E2,1.4640836E3,2.2752292E3,1.3935243E3,6.9904785E2,1.1155789E3,8.1787354E2,9.146605E2,1.7890333E3,0E0,0E0,0E0,0E0,0E0,0E0,0E0,0E0,0E0,0E0,0E0,0E0,0E0,0E0,0E0,0E0,0E0,0E0,0E0,0E0,0E0,0E0,0E0,0E0,0E0,0E0,0E0,0E0,0E0,0E0,0E0,0E0,0E0,0E0,0E0,0E0,0E0,0E0,0E0,0E0,0E0,0E0,0E0,0E0,0E0,0E0,0E0,0E0,0E0,0E0,0E0,0E0],"parents":[2147483647,0,0,1,1,2,2,3,3,4,4,5,5,6,6,7,7,8,8,9,9,10,10,11,11,12,12,13,13,14,14,15,15,16,16,18,18,19,19,20,20,21,21,22,22,23,23,24,24,25,25,26,26,27,27,28,28,29,29,30,30,31,31,32,32,35,35,36,36,37,37,38,38,39,39,40,40,41,41,42,42,44,44,45,45,46,46,48,48,49,49,50,50,51,51,52,52,53,53,54,54,55,55,56,56,57,57,58,58,59,59,60,60],"right_children":[2,4,6,8,10,12,14,16,18,20,22,24,26,28,30,32,34,-1,36,38,40,42,44,46,48,50,52,54,56,58,60,62,64,-1,-1,66,68,70,72,74,76,78,80,-1,82,84,86,-1,88,90,92,94,96,98,100,102,104,106,108,110,112,-1,-1,-1,-1,-1,-1,-1,-1,-1,-1,-1,-1,-1,-1,-1,-1,-1,-1,-1,-1,-1,-1,-1,-1,-1,-1,-1,-1,-1,-1,-1,-1,-1,-1,-1,-1,-1,-1,-1,-1,-1,-1,-1,-1,-1,-1,-1,-1,-1,-1,-1,-1],"split_conditions":[5.420001E-1,1.3903781E2,1.8976099E2,9.904906E0,3.2329062E2,1.2742E1,2.5711662E1,9.504273E0,1.024578E1,3.0120776E2,1.3004922E1,1.18E1,3.4508606E1,1.0774167E1,2.8527908E2,9.6911095E1,-1.658E0,-5.4288073E0,1.2793333E2,3.8E0,-1.3892502E0,-2.2425E0,3.2641885E2,7.072878E0,1.3700002E1,9.504273E0,1.4731151E2,1.0156583E1,1.5273505E1,2.6646588E2,1.5444081E1,7.072878E0,1.0536999E2,8.650591E0,5.402596E-1,1.2354535E2,1.658346E1,1.6E0,6.1E0,8E-1,1.6203999E1,1.24811535E1,-1.658E0,-3.1465614E0,2.6368616E1,3.0887496E0,7.586667E-1,-4.4928956E0,1.15613525E2,1.7839918E1,7E-1,1.4629544E2,8.707238E0,1.0990322E1,7.0000005E-1,1E-1,3.579362E2,1.9684224E2,3.2000003E0,3.0551254E1,2.0706585E1,8.2607347E-1,3.684302E0,6.0508348E-2,1.0919647E0,2.0021815E0,-2.4017985E0,-8.174482E-2,4.69273E0,1.3810477E0,-2.2534995E0,7.683645E0,-1.3186432E0,3.1168675E0,-3.9920175E0,-4.975433E0,-1.7022731E0,1.15134E1,-1.0194008E0,-9.7805333E-1,4.845414E0,1.8209634E0,-8.313172E-1,1.9477998E0,9.859781E0,4.912428E0,1.0161834E0,-1.664142E0,-3.0851614E-1,2.2237E0,7.412369E-1,-1.6849774E0,4.1867134E-1,1.6759048E-1,3.5483341E0,1.945558E0,-5.219243E-1,1.7016633E0,1.1180443E-1,4.8882403E0,-2.6830168E-2,-6.258571E-1,6.6643804E-1,-6.528777E-1,-4.2259626E0,-4.302592E0,-7.068829E-2,-1.3382224E0,-2.700794E0,2.142552E-1,-8.577482E-1,-2.195432E0,4.757037E-1],"split_indices":[0,3,3,2,3,0,2,2,2,3,2,1,3,0,3,3,0,0,3,1,0,0,3,2,1,2,3,0,2,3,0,2,3,0,0,3,2,1,1,1,2,2,0,0,2,0,0,0,3,0,1,3,2,2,1,1,3,3,1,2,0,0,0,0,0,0,0,0,0,0,0,0,0,0,0,0,0,0,0,0,0,0,0,0,0,0,0,0,0,0,0,0,0,0,0,0,0,0,0,0,0,0,0,0,0,0,0,0,0,0,0,0,0],"split_type":[0,0,0,0,0,0,0,0,0,0,0,0,0,0,0,0,0,0,0,0,0,0,0,0,0,0,0,0,0,0,0,0,0,0,0,0,0,0,0,0,0,0,0,0,0,0,0,0,0,0,0,0,0,0,0,0,0,0,0,0,0,0,0,0,0,0,0,0,0,0,0,0,0,0,0,0,0,0,0,0,0,0,0,0,0,0,0,0,0,0,0,0,0,0,0,0,0,0,0,0,0,0,0,0,0,0,0,0,0,0,0,0,0],"sum_hessian":[3.678E3,3.02E2,3.376E3,9.3E1,2.09E2,1.094E3,2.282E3,1.5E1,7.8E1,1.5E2,5.9E1,5.27E2,5.67E2,1.6E3,6.82E2,1.1E1,4E0,1E0,7.7E1,1.06E2,4.4E1,1.1E1,4.8E1,5.18E2,9E0,5.7E1,5.1E2,6.07E2,9.93E2,3.01E2,3.81E2,8E0,3E0,3E0,1E0,5.1E1,2.6E1,1.01E2,5E0,1.8E1,2.6E1,4E0,7E0,2E0,4.6E1,3E0,5.15E2,4E0,5E0,5E0,5.2E1,2.67E2,2.43E2,5.74E2,3.3E1,3E2,6.93E2,9.1E1,2.1E2,2.85E2,9.6E1,1E0,7E0,1E0,2E0,4.7E1,4E0,6E0,2E1,9.2E1,9E0,4E0,1E0,1.4E1,4E0,6E0,2E1,3E0,1E0,2E0,5E0,4E1,6E0,2E0,1E0,6E0,5.09E2,4E0,1E0,3E0,2E0,4.1E1,1.1E1,2.61E2,6E0,5E0,2.38E2,5.7E1,5.17E2,1.7E1,1.6E1,1.61E2,1.39E2,6.89E2,4E0,5E0,8.6E1,1.55E2,5.5E1,1.4E2,1.45E2,6.1E1,3.5E1],"tree_param":{"num_deleted":"0","num_feature":"4","num_nodes":"113","size_leaf_vector":"1"}},{"base_weights":[5.66406E-2,4.5803657E0,-2.0748733E-1,9.487518E0,3.6065855E0,1.0919399E0,-8.4016806E-1,1.3793452E1,1.801969E0,2.8219612E0,1.5956841E1,2.4424005E0,-5.317635E-1,-1.3944716E0,7.2976834E-1,8.81601E0,6.7466717E0,-7.9592743E0,8.8976555E0,-7.9700336E0,3.3607612E0,2.4809864E1,-3.525159E0,2.2776325E0,1.6593077E1,-8.538343E0,-3.2500994E-1,5.9390683E-2,-2.0909834E0,1.1452662E1,4.5912647E-1,1.16431E1,-4.6144857E0,1.743248E0,-3.9739044E0,7.12839E0,-1.7108917E-2,-5.3158016E0,-1.7670428E0,1.9828919E0,6.2146287E0,2.7623354E1,1.1893399E0,1.0849E-1,-4.941301E0,2.4371285E0,-6.716218E0,1.9874292E1,-4.6413234E-1,-1.370728E1,-2.2337024E-1,1.6084284E1,-4.878017E-1,5.740553E0,-3.180288E-1,2.899228E-1,-2.4498107E0,3.2024918E0,1.5257499E1,1.4858706E1,3.3693925E-1,2.1165745E0,5.5470552E0,9.366715E-1,-1.5220986E-1,1.4983052E0,-2.0080056E0,-1.3530425E0,7.4383086E-1,3.0160668E0,1.3092035E-1,3.409885E0,5.282885E-1,9.388243E0,1.3904138E0,-1.7876347E0,-4.3595067E-1,6.035242E-1,2.7349353E0,8.788479E-1,-2.3921218E0,3.3876536E0,9.417729E0,8.3907914E-1,-4.939376E0,1.8747907E0,-8.3032954E-1,9.418349E0,-1.3762066E0,2.4234976E-1,-2.7723765E-1,-4.544558E-3,4.0247498E0,-2.6191115E0,-1.6356586E-2,1.1075456E0,-6.51067E-1,-7.950895E-1,4.9456993E-1,1.7900479E0,-1.5928769E0,7.5847273E0,1.3081437E0,8.550904E0,-1.12155E0,2.2918157E-1,-8.4395033E-1],"categories":[],"categories_nodes":[],"categories_segments":[],"categories_sizes":[],"default_left":[0,0,0,0,0,0,0,0,0,0,0,0,0,0,0,0,0,0,0,0,0,0,0,0,0,0,0,0,0,0,0,0,0,0,0,0,0,0,0,0,0,0,0,0,0,0,0,0,0,0,0,0,0,0,0,0,0,0,0,0,0,0,0,0,0,0,0,0,0,0,0,0,0,0,0,0,0,0,0,0,0,0,0,0,0,0,0,0,0,0,0,0,0,0,0,0,0,0,0,0,0,0,0,0,0,0,0],"id":7,"left_children":[1,3,5,7,9,11,13,15,17,19,21,23,25,27,29,31,-1,33,35,37,39,41,43,45,47,49,51,53,55,57,59,61,-1,63,-1,-1,65,-1,67,69,71,73,-1,-1,75,77,79,81,-1,83,85,87,89,91,93,95,97,99,101,103,105,-1,-1,-1,-1,-1,-1,-1,-1,-1,-1,-1,-1,-1,-1,-1,-1,-1,-1,-1,-1,-1,-1,-1,-1,-1,-1,-1,-1,-1,-1,-1,-1,-1,-1,-1,-1,-1,-1,-1,-1,-1,-1,-1,-1,-1,-1],"loss_changes":[4.396775E3,9.3581494E2,2.8594377E3,1.067229E3,1.6120137E3,2.498838E3,2.0364653E3,7.106411E2,9.712343E2,9.687711E2,1.8122046E3,1.4124495E3,8.5471643E2,1.7509658E3,1.7679026E3,1.2052227E3,0E0,3.308793E2,1.0604535E3,4.5248788E2,5.9717664E2,3.0102637E2,2.3803936E1,9.000115E2,4.4740063E2,5.556725E2,1.3595227E3,1.2047114E3,9.9942676E2,4.2199622E2,1.0453821E3,3.093346E2,0E0,1.0894843E1,0E0,0E0,2.3417528E2,0E0,8.107367E1,1.3186205E3,1.1271724E3,3.612788E2,0E0,0E0,1.988205E0,1.7034626E3,1.5678546E2,2.3861084E2,0E0,4.1010754E2,1.1611081E2,1.7264536E3,2.845352E2,1.5463848E3,1.1677301E3,1.2968628E3,8.3918896E2,1.7286281E2,9.8217456E2,1.3752882E3,7.9978955E2,0E0,0E0,0E0,0E0,0E0,0E0,0E0,0E0,0E0,0E0,0E0,0E0,0E0,0E0,0E0,0E0,0E0,0E0,0E0,0E0,0E0,0E0,0E0,0E0,0E0,0E0,0E0,0E0,0E0,0E0,0E0,0E0,0E0,0E0,0E0,0E0,0E0,0E0,0E0,0E0,0E0,0E0,0E0,0E0,0E0,0E0],"parents":[2147483647,0,0,1,1,2,2,3,3,4,4,5,5,6,6,7,7,8,8,9,9,10,10,11,11,12,12,13,13,14,14,15,15,17,17,18,18,19,19,20,20,21,21,22,22,23,23,24,24,25,25,26,26,27,27,28,28,29,29,30,30,31,31,33,33,36,36,38,38,39,39,40,40,41,41,44,44,45,45,46,46,47,47,49,49,50,50,51,51,52,52,53,53,54,54,55,55,56,56,57,57,58,58,59,59,60,60],"right_children":[2,4,6,8,10,12,14,16,18,20,22,24,26,28,30,32,-1,34,36,38,40,42,44,46,48,50,52,54,56,58,60,62,-1,64,-1,-1,66,-1,68,70,72,74,-1,-1,76,78,80,82,-1,84,86,88,90,92,94,96,98,100,102,104,106,-1,-1,-1,-1,-1,-1,-1,-1,-1,-1,-1,-1,-1,-1,-1,-1,-1,-1,-1,-1,-1,-1,-1,-1,-1,-1,-1,-1,-1,-1,-1,-1,-1,-1,-1,-1,-1,-1,-1,-1,-1,-1,-1,-1,-1,-1],"split_conditions":[-5.6633335E-1,1.15613525E2,1.8976099E2,1.1480557E1,2.5000002E0,1.3862831E1,3.1768082E2,1.024578E1,1.2819235E1,9.290511E0,2.2553934E1,1.8684267E2,1.4183666E1,1E-1,3.1807358E2,9.904906E0,6.7466717E0,-3.4913337E0,1.5905319E1,-2.2425E0,2E-1,3.2485278E2,-1.3892502E0,1.18E1,6.6262507E0,1E-1,1.4287833E1,9.659814E0,3.9232495E0,4.665833E0,7.9932966E0,9.504273E0,-4.6144857E0,-6.253834E0,-3.9739044E0,7.12839E0,2.4860281E1,-5.3158016E0,-1.3892502E0,1.3004922E1,2.5156494E2,-6.913333E-1,1.1893399E0,1.0849E-1,-1.2663332E0,3.7E0,8.875009E-2,3.5878334E0,-4.6413234E-1,8.435069E0,9.269607E1,3.9E0,1.7409582E1,8.654986E0,1.9684224E2,2.4503809E1,2.423575E1,2.1232502E0,8.817E0,3.8649166E0,2.6368616E1,2.1165745E0,5.5470552E0,9.366715E-1,-1.5220986E-1,1.4983052E0,-2.0080056E0,-1.3530425E0,7.4383086E-1,3.0160668E0,1.3092035E-1,3.409885E0,5.282885E-1,9.388243E0,1.3904138E0,-1.7876347E0,-4.3595067E-1,6.035242E-1,2.7349353E0,8.788479E-1,-2.3921218E0,3.3876536E0,9.417729E0,8.3907914E-1,-4.939376E0,1.8747907E0,-8.3032954E-1,9.418349E0,-1.3762066E0,2.4234976E-1,-2.7723765E-1,-4.544558E-3,4.0247498E0,-2.6191115E0,-1.6356586E-2,1.1075456E0,-6.51067E-1,-7.950895E-1,4.9456993E-1,1.7900479E0,-1.5928769E0,7.5847273E0,1.3081437E0,8.550904E0,-1.12155E0,2.2918157E-1,-8.4395033E-1],"split_indices":[0,3,3,2,1,0,3,2,2,2,2,3,0,1,3,2,0,0,2,0,1,3,0,1,0,1,0,2,0,0,2,2,0,0,0,0,3,0,0,2,3,0,0,0,0,1,0,0,0,2,3,1,0,2,3,2,0,0,0,0,2,0,0,0,0,0,0,0,0,0,0,0,0,0,0,0,0,0,0,0,0,0,0,0,0,0,0,0,0,0,0,0,0,0,0,0,0,0,0,0,0,0,0,0,0,0,0],"split_type":[0,0,0,0,0,0,0,0,0,0,0,0,0,0,0,0,0,0,0,0,0,0,0,0,0,0,0,0,0,0,0,0,0,0,0,0,0,0,0,0,0,0,0,0,0,0,0,0,0,0,0,0,0,0,0,0,0,0,0,0,0,0,0,0,0,0,0,0,0,0,0,0,0,0,0,0,0,0,0,0,0,0,0,0,0,0,0,0,0,0,0,0,0,0,0,0,0,0,0,0,0,0,0,0,0,0,0],"sum_hessian":[3.678E3,2.02E2,3.476E3,3.2E1,1.7E2,1.138E3,2.338E3,2E1,1.2E1,1.61E2,9E0,6.21E2,5.17E2,1.728E3,6.1E2,1.4E1,6E0,5E0,7E0,7E0,1.54E2,6E0,3E0,6.15E2,6E0,1.2E1,5.05E2,5.6E2,1.168E3,1.4E1,5.96E2,1.3E1,1E0,2E0,3E0,2E0,5E0,2E0,5E0,1.05E2,4.9E1,5E0,1E0,1E0,2E0,6.05E2,1E1,5E0,1E0,7E0,5E0,4E0,5.01E2,3.4E1,5.26E2,1.53E2,1.015E3,5E0,9E0,4E0,5.92E2,9E0,4E0,1E0,1E0,3E0,2E0,3E0,2E0,1.6E1,8.9E1,2.2E1,2.7E1,4E0,1E0,1E0,1E0,5.7E2,3.5E1,1E0,9E0,4E0,1E0,1E0,6E0,1E0,4E0,2E0,2E0,1.26E2,3.75E2,2E1,1.4E1,1.5E1,5.11E2,6.4E1,8.9E1,9.68E2,4.7E1,4E0,1E0,4E0,5E0,2E0,2E0,5.22E2,7E1],"tree_param":{"num_deleted":"0","num_feature":"4","num_nodes":"107","size_leaf_vector":"1"}},{"base_weights":[5.6175105E-2,8.375565E-1,-9.4738436E-1,2.2708309E0,-2.9723799E-2,5.619376E-1,-1.2612106E0,1.1530314E1,2.0244966E0,3.33653E0,-3.5260746E-1,3.8912568E0,-9.77647E-2,-7.795045E0,-1.1759781E0,1.400703E1,1.2987626E0,1.7365873E0,9.499527E0,2.3977841E-1,9.953477E0,-6.163349E-1,4.6597204E0,2.8842614E0,1.736344E1,-2.5883564E-1,1.2337285E1,-1.0057286E1,-3.542076E-1,-1.4531655E0,8.830531E-1,1.6096739E1,-2.6007912E0,2.6935937E0,-2.8658695E0,2.2180238E0,-9.2881143E-1,1.1979023E1,3.497478E-1,2.8400059E0,-4.5049133E0,1.2058953E1,-5.5122666E0,-9.0229946E-1,3.112483E0,2.1052689E1,3.405585E0,-1.9336545E0,5.706415E0,6.8921485E0,9.2139935E-1,7.6673164E0,-4.6811914E-1,6.6267467E0,-1.0749682E0,-4.6505938E0,-1.1943528E1,2.246983E0,-2.4240868E0,9.543501E-1,-1.7134169E0,-4.9522247E0,1.3566166E0,2.9990222E0,7.889217E0,4.5262071E-1,-2.3984528E0,1.0014405E0,2.6454857E-1,-5.0438327E-1,3.831114E0,6.2544355E0,2.2050316E0,-2.5185304E0,2.702148E0,1.8257995E0,-1.2029935E0,1.7385287E0,-3.1647272E0,-7.469395E-3,4.454548E0,-1.9149611E0,-3.042778E-1,-1.4233339E-1,-1.1025977E0,8.293434E0,5.392969E-1,1.0831657E1,1.1999711E0,3.562856E0,4.592611E-1,1.1536798E0,-3.221731E0,5.941102E0,9.667793E-1,2.491871E-1,3.2634022E0,-3.006386E-1,7.1343035E-1,-2.849473E0,-3.192361E-1,-4.3960106E-1,-3.9210408E0,-6.4187604E-1,1.4454675E0,-1.5044137E0,-4.6813673E-1,-1.7780932E0,8.6550814E-1,2.5119977E0,2.5036374E-1],"categories":[],"categories_nodes":[],"categories_segments":[],"categories_sizes":[],"default_left":[0,0,0,0,0,0,0,0,0,0,0,0,0,0,0,0,0,0,0,0,0,0,0,0,0,0,0,0,0,0,0,0,0,0,0,0,0,0,0,0,0,0,0,0,0,0,0,0,0,0,0,0,0,0,0,0,0,0,0,0,0,0,0,0,0,0,0,0,0,0,0,0,0,0,0,0,0,0,0,0,0,0,0,0,0,0,0,0,0,0,0,0,0,0,0,0,0,0,0,0,0,0,0,0,0,0,0,0,0,0,0],"id":8,"left_children":[1,3,5,7,9,11,13,15,17,19,21,23,25,27,29,31,33,35,37,39,41,43,45,47,49,51,53,55,57,59,61,63,-1,-1,65,67,69,71,73,75,77,79,81,83,85,87,89,91,93,-1,-1,95,97,-1,-1,99,101,-1,-1,103,105,107,109,-1,-1,-1,-1,-1,-1,-1,-1,-1,-1,-1,-1,-1,-1,-1,-1,-1,-1,-1,-1,-1,-1,-1,-1,-1,-1,-1,-1,-1,-1,-1,-1,-1,-1,-1,-1,-1,-1,-1,-1,-1,-1,-1,-1,-1,-1,-1,-1],"loss_changes":[2.8857283E3,2.571939E3,7.637825E2,1.755782E3,1.4032882E3,6.109683E2,7.3373096E2,4.8862085E2,1.6212739E3,2.3131008E3,1.5600566E3,5.7397504E2,4.6987488E2,2.8259802E2,7.535155E2,8.977388E2,1.8565106E2,9.4394385E2,6.3104175E2,9.751017E2,1.2387314E3,1.1970753E3,1.1412845E3,6.0929785E2,1.6999255E2,3.8677502E2,5.449148E2,7.7033936E1,3.6354364E2,7.29697E2,4.405681E2,6.7047095E2,0E0,0E0,1.01811035E2,9.279956E2,1.1862946E3,7.49959E2,6.0557025E2,1.1583894E3,1.8042753E3,1.0790371E3,1.311319E1,1.2333535E3,2.5307617E3,8.8235254E2,8.71097E2,9.064099E2,9.166012E2,0E0,0E0,1.2266748E2,3.4588254E2,0E0,0E0,7.682256E1,8.7091064E1,0E0,0E0,1.3731316E3,5.218884E2,1.08772064E2,5.2784216E2,0E0,0E0,0E0,0E0,0E0,0E0,0E0,0E0,0E0,0E0,0E0,0E0,0E0,0E0,0E0,0E0,0E0,0E0,0E0,0E0,0E0,0E0,0E0,0E0,0E0,0E0,0E0,0E0,0E0,0E0,0E0,0E0,0E0,0E0,0E0,0E0,0E0,0E0,0E0,0E0,0E0,0E0,0E0,0E0,0E0,0E0,0E0,0E0],"parents":[2147483647,0,0,1,1,2,2,3,3,4,4,5,5,6,6,7,7,8,8,9,9,10,10,11,11,12,12,13,13,14,14,15,15,16,16,17,17,18,18,19,19,20,20,21,21,22,22,23,23,24,24,25,25,26,26,27,27,28,28,29,29,30,30,31,31,34,34,35,35,36,36,37,37,38,38,39,39,40,40,41,41,42,42,43,43,44,44,45,45,46,46,47,47,48,48,51,51,52,52,55,55,56,56,59,59,60,60,61,61,62,62],"right_children":[2,4,6,8,10,12,14,16,18,20,22,24,26,28,30,32,34,36,38,40,42,44,46,48,50,52,54,56,58,60,62,64,-1,-1,66,68,70,72,74,76,78,80,82,84,86,88,90,92,94,-1,-1,96,98,-1,-1,100,102,-1,-1,104,106,108,110,-1,-1,-1,-1,-1,-1,-1,-1,-1,-1,-1,-1,-1,-1,-1,-1,-1,-1,-1,-1,-1,-1,-1,-1,-1,-1,-1,-1,-1,-1,-1,-1,-1,-1,-1,-1,-1,-1,-1,-1,-1,-1,-1,-1,-1,-1,-1,-1],"split_conditions":[1.3206582E1,1.8416384E1,1.2261157E1,-3.4913337E0,1.3542595E2,1.5761668E1,1.2594856E1,3.2737155E2,1.8214718E1,2.3847115E1,1.2500336E1,1.1792404E1,3.579362E2,3.0120776E2,2.4404497E1,1.7673029E1,-6.253834E0,1.08795E1,3.241589E2,5.674167E0,3.0955812E1,3.347491E2,1.9008547E1,1.1288516E2,1.4404502E1,6.8650684E0,1.9375332E1,1.6824167E1,3.1768082E2,1.3903781E2,1.3450702E2,1.4190585E2,-2.6007912E0,2.6935937E0,3.3741812E2,1.3896187E1,7.7E0,1E-1,3.347491E2,6E-1,2.0696087E1,1.20163025E2,1.0774167E1,4.8999996E0,3.358398E2,1E-1,1.2581585E1,9.904906E0,1.3035587E2,6.8921485E0,9.2139935E-1,3.6274498E0,1.9E0,6.6267467E0,-1.0749682E0,1.333575E1,1.0577918E1,2.246983E0,-2.4240868E0,1.252913E2,1.3281023E1,4.5999994E0,1.3896187E1,2.9990222E0,7.889217E0,4.5262071E-1,-2.3984528E0,1.0014405E0,2.6454857E-1,-5.0438327E-1,3.831114E0,6.2544355E0,2.2050316E0,-2.5185304E0,2.702148E0,1.8257995E0,-1.2029935E0,1.7385287E0,-3.1647272E0,-7.469395E-3,4.454548E0,-1.9149611E0,-3.042778E-1,-1.4233339E-1,-1.1025977E0,8.293434E0,5.392969E-1,1.0831657E1,1.1999711E0,3.562856E0,4.592611E-1,1.1536798E0,-3.221731E0,5.941102E0,9.667793E-1,2.491871E-1,3.2634022E0,-3.006386E-1,7.1343035E-1,-2.849473E0,-3.192361E-1,-4.3960106E-1,-3.9210408E0,-6.4187604E-1,1.4454675E0,-1.5044137E0,-4.6813673E-1,-1.7780932E0,8.6550814E-1,2.5119977E0,2.5036374E-1],"split_indices":[0,2,2,0,3,0,2,3,2,2,0,2,3,3,0,2,0,0,3,0,2,3,2,3,0,3,0,0,3,3,3,3,0,0,3,2,1,1,3,1,2,3,0,1,3,1,0,2,3,0,0,3,1,0,0,0,3,0,0,3,2,1,2,0,0,0,0,0,0,0,0,0,0,0,0,0,0,0,0,0,0,0,0,0,0,0,0,0,0,0,0,0,0,0,0,0,0,0,0,0,0,0,0,0,0,0,0,0,0,0,0],"split_type":[0,0,0,0,0,0,0,0,0,0,0,0,0,0,0,0,0,0,0,0,0,0,0,0,0,0,0,0,0,0,0,0,0,0,0,0,0,0,0,0,0,0,0,0,0,0,0,0,0,0,0,0,0,0,0,0,0,0,0,0,0,0,0,0,0,0,0,0,0,0,0,0,0,0,0,0,0,0,0,0,0,0,0,0,0,0,0,0,0,0,0,0,0,0,0,0,0,0,0,0,0,0,0,0,0,0,0,0,0,0,0],"sum_hessian":[3.678E3,2.068E3,1.61E3,7.79E2,1.289E3,2.77E2,1.333E3,1.9E1,7.6E2,1.12E2,1.177E3,4.5E1,2.32E2,1.6E1,1.317E3,1.5E1,4E0,7.33E2,2.7E1,7.7E1,3.5E1,1.119E3,5.8E1,4.3E1,2E0,2.3E2,2E0,1.2E1,4E0,1.161E3,1.56E2,1.4E1,1E0,1E0,3E0,6.21E2,1.12E2,2.1E1,6E0,5E1,2.7E1,3.1E1,4E0,1.04E3,7.9E1,3E0,5.5E1,1.6E1,2.7E1,1E0,1E0,5E0,2.25E2,1E0,1E0,4E0,8E0,2E0,2E0,1.13E2,1.048E3,1.1E1,1.45E2,1E1,4E0,2E0,1E0,3.37E2,2.84E2,1.07E2,5E0,6E0,1.5E1,3E0,3E0,3.4E1,1.6E1,1E1,1.7E1,6E0,2.5E1,3E0,1E0,9.02E2,1.38E2,3E0,7.6E1,1E0,2E0,9E0,4.6E1,1E1,6E0,3E0,2.4E1,2E0,3E0,1.9E2,3.5E1,1E0,3E0,1E0,7E0,6.3E1,5E1,4.5E1,1.003E3,1E1,1E0,9E0,1.36E2],"tree_param":{"num_deleted":"0","num_feature":"4","num_nodes":"111","size_leaf_vector":"1"}},{"base_weights":[5.6294955E-2,5.1888466E-1,-9.068996E-1,1.4504912E0,-2.6994258E-1,-1.454248E0,-3.6524594E-2,1.7735275E0,-2.85191E0,4.285096E0,-5.343091E-1,8.177579E-1,-1.9181995E0,-6.3169456E-1,1.6459931E0,1.173968E0,6.7930717E0,5.4433947E0,-4.1147165E0,7.1456175E0,3.073612E-1,-2.9969546E-1,-4.6272035E0,2.5103432E-3,7.2813272E0,-2.5406408E0,-9.5720774E-1,-1.0213434E0,2.175829E0,3.1425047E0,3.9294645E-1,1.4099053E0,-1.18438835E1,8.052065E0,6.00233E0,-2.8791916E0,7.907195E0,-2.6702113E0,-9.233221E0,-9.147945E0,8.5963335E0,1.3040972E1,-3.1327403E0,-1.9574051E0,1.669635E-1,-4.90932E0,2.183508E0,3.9808345E-1,-8.542371E0,9.2452135E0,-3.0013287E0,-1.2455447E0,-3.6169124E0,-3.2662482E0,1.5591396E0,-1.3966352E-1,-2.3138108E0,2.7975733E0,-2.051812E0,-1.929297E0,4.6027584E0,4.551233E0,-5.0513184E-1,1.3875343E0,2.7478796E-1,-4.352365E0,4.6170144E0,5.721697E-1,2.467466E0,3.6533484E0,9.0914077E-1,-2.280571E0,1.5180029E-1,4.9664128E-1,-3.6280053E0,-3.1603768E0,-7.4820215E-1,1.4825139E0,5.334599E0,5.5746865E-1,6.289042E0,8.930323E-1,-1.4187415E0,-2.811229E0,-3.8428962E-1,1.5526482E-1,-8.783899E-1,-1.205607E0,-3.3260124E0,-5.1118237E-1,8.342447E-1,-3.36077E0,3.1476176E-1,3.334523E0,-2.0819474E-2,7.642027E-1,-2.1148007E0,-1.449844E0,-5.04214E-2,-5.9405786E-1,-1.7347571E0,-2.0039286E-1,-1.4255716E0,1.5156151E-3,2.5767887E0,-8.161225E-1,3.328639E-1,-8.1657934E-1,1.4339607E0,3.663915E-1,2.2212744E0,-1.497955E0,-2.754903E-1,3.3302386E0,1.204509E0,1.5528488E-1,1.9510019E0,-1.6073501E0,1.9988339E-1],"categories":[],"categories_nodes":[],"categories_segments":[],"categories_sizes":[],"default_left":[0,0,0,0,0,0,0,0,0,0,0,0,0,0,0,0,0,0,0,0,0,0,0,0,0,0,0,0,0,0,0,0,0,0,0,0,0,0,0,0,0,0,0,0,0,0,0,0,0,0,0,0,0,0,0,0,0,0,0,0,0,0,0,0,0,0,0,0,0,0,0,0,0,0,0,0,0,0,0,0,0,0,0,0,0,0,0,0,0,0,0,0,0,0,0,0,0,0,0,0,0,0,0,0,0,0,0,0,0,0,0,0,0,0,0,0,0,0,0],"id":9,"left_children":[1,3,5,7,9,11,13,15,17,19,21,23,25,27,29,31,33,35,37,39,41,43,45,47,49,51,53,55,57,59,61,63,65,-1,67,-1,69,71,73,75,77,79,81,83,85,87,-1,89,91,93,95,97,99,101,103,105,107,109,-1,111,113,115,117,-1,-1,-1,-1,-1,-1,-1,-1,-1,-1,-1,-1,-1,-1,-1,-1,-1,-1,-1,-1,-1,-1,-1,-1,-1,-1,-1,-1,-1,-1,-1,-1,-1,-1,-1,-1,-1,-1,-1,-1,-1,-1,-1,-1,-1,-1,-1,-1,-1,-1,-1,-1,-1,-1,-1,-1],"loss_changes":[1.6397002E3,1.8272946E3,5.6876654E2,1.5894666E3,1.6243464E3,7.7422424E2,4.636792E2,3.1851218E3,8.604271E2,8.398048E2,1.2219701E3,6.5865784E2,3.6184814E2,3.7635254E2,2.2566418E2,2.9314546E3,1.6301855E3,4.835179E2,4.929048E2,1.0950442E3,1.4426112E3,9.3327045E2,2.6748584E2,3.8197458E2,3.1046356E2,5.0983496E2,1.4053865E3,3.426791E2,2.5455E2,4.1621655E2,2.5250826E2,1.4774962E3,1.4566465E3,0E0,9.8548755E2,0E0,1.7136255E2,8.810362E2,4.8716614E2,1.063324E1,1.2549312E3,5.8121204E2,2.6766113E2,1.316889E3,1.0236219E3,3.2956604E2,0E0,5.4566296E2,1.3933115E2,2.0977576E2,8.534024E1,6.524042E2,7.0099365E2,4.832035E2,1.267312E3,5.833189E2,3.6620953E2,2.8141135E2,0E0,3.5683243E1,1.1965051E2,9.112236E1,3.2190195E2,0E0,0E0,0E0,0E0,0E0,0E0,0E0,0E0,0E0,0E0,0E0,0E0,0E0,0E0,0E0,0E0,0E0,0E0,0E0,0E0,0E0,0E0,0E0,0E0,0E0,0E0,0E0,0E0,0E0,0E0,0E0,0E0,0E0,0E0,0E0,0E0,0E0,0E0,0E0,0E0,0E0,0E0,0E0,0E0,0E0,0E0,0E0,0E0,0E0,0E0,0E0,0E0,0E0,0E0,0E0,0E0],"parents":[2147483647,0,0,1,1,2,2,3,3,4,4,5,5,6,6,7,7,8,8,9,9,10,10,11,11,12,12,13,13,14,14,15,15,16,16,17,17,18,18,19,19,20,20,21,21,22,22,23,23,24,24,25,25,26,26,27,27,28,28,29,29,30,30,31,31,32,32,34,34,36,36,37,37,38,38,39,39,40,40,41,41,42,42,43,43,44,44,45,45,47,47,48,48,49,49,50,50,51,51,52,52,53,53,54,54,55,55,56,56,57,57,59,59,60,60,61,61,62,62],"right_children":[2,4,6,8,10,12,14,16,18,20,22,24,26,28,30,32,34,36,38,40,42,44,46,48,50,52,54,56,58,60,62,64,66,-1,68,-1,70,72,74,76,78,80,82,84,86,88,-1,90,92,94,96,98,100,102,104,106,108,110,-1,112,114,116,118,-1,-1,-1,-1,-1,-1,-1,-1,-1,-1,-1,-1,-1,-1,-1,-1,-1,-1,-1,-1,-1,-1,-1,-1,-1,-1,-1,-1,-1,-1,-1,-1,-1,-1,-1,-1,-1,-1,-1,-1,-1,-1,-1,-1,-1,-1,-1,-1,-1,-1,-1,-1,-1,-1,-1,-1],"split_conditions":[1.6354502E1,1E-1,2.1750336E1,3.3958905E2,-6.913333E-1,1.4564105E2,9.0000004E-1,3.1693726E2,-2.2425E0,2.7622992E2,3.8723015E1,1.413258E2,3.05161E2,2.717833E1,2.7745264E2,3.150849E2,8.654986E0,3.4303375E2,3.5316345E2,9.290511E0,1.7339897E1,4E-1,3.2560678E2,1.4036797E2,2.5277023E1,2.6392343E2,4E-1,1.9164717E1,2.7691935E1,1.26849815E2,1.3608762E1,1.0514218E1,1.3458668E1,8.052065E0,3.4399166E0,-2.8791916E0,3.4807928E2,3.438845E2,2.9086668E0,5E-1,1.4731151E2,6E-1,-4.568417E0,1.1480557E1,1.0199999E1,3.0062057E2,2.183508E0,1.9290833E1,1E-1,7E-1,1.9148252E1,1.5555606E2,2.2768398E1,3.268693E2,3.3958905E2,1.4190585E2,3.1956972E1,2.1659918E1,-2.051812E0,8.287822E0,2.215242E1,2.362E1,2.8825485E2,1.3875343E0,2.7478796E-1,-4.352365E0,4.6170144E0,5.721697E-1,2.467466E0,3.6533484E0,9.0914077E-1,-2.280571E0,1.5180029E-1,4.9664128E-1,-3.6280053E0,-3.1603768E0,-7.4820215E-1,1.4825139E0,5.334599E0,5.5746865E-1,6.289042E0,8.930323E-1,-1.4187415E0,-2.811229E0,-3.8428962E-1,1.5526482E-1,-8.783899E-1,-1.205607E0,-3.3260124E0,-5.1118237E-1,8.342447E-1,-3.36077E0,3.1476176E-1,3.334523E0,-2.0819474E-2,7.642027E-1,-2.1148007E0,-1.449844E0,-5.04214E-2,-5.9405786E-1,-1.7347571E0,-2.0039286E-1,-1.4255716E0,1.5156151E-3,2.5767887E0,-8.161225E-1,3.328639E-1,-8.1657934E-1,1.4339607E0,3.663915E-1,2.2212744E0,-1.497955E0,-2.754903E-1,3.3302386E0,1.204509E0,1.5528488E-1,1.9510019E0,-1.6073501E0,1.9988339E-1],"split_indices":[0,1,0,3,0,3,1,3,0,3,2,3,3,0,3,3,2,3,3,2,2,1,3,3,2,3,1,2,2,3,2,2,0,0,0,0,3,3,0,1,3,1,0,2,1,3,0,0,1,1,0,3,2,3,3,3,2,2,0,2,0,0,3,0,0,0,0,0,0,0,0,0,0,0,0,0,0,0,0,0,0,0,0,0,0,0,0,0,0,0,0,0,0,0,0,0,0,0,0,0,0,0,0,0,0,0,0,0,0,0,0,0,0,0,0,0,0,0,0],"split_type":[0,0,0,0,0,0,0,0,0,0,0,0,0,0,0,0,0,0,0,0,0,0,0,0,0,0,0,0,0,0,0,0,0,0,0,0,0,0,0,0,0,0,0,0,0,0,0,0,0,0,0,0,0,0,0,0,0,0,0,0,0,0,0,0,0,0,0,0,0,0,0,0,0,0,0,0,0,0,0,0,0,0,0,0,0,0,0,0,0,0,0,0,0,0,0,0,0,0,0,0,0,0,0,0,0,0,0,0,0,0,0,0,0,0,0,0,0,0,0],"sum_hessian":[3.678E3,2.485E3,1.193E3,1.139E3,1.346E3,7.32E2,4.61E2,1.06E3,7.9E1,7.3E1,1.273E3,1.24E2,6.08E2,3.41E2,1.2E2,9.48E2,1.12E2,1E1,6.9E1,4.2E1,3.1E1,1.205E3,6.8E1,1.11E2,1.3E1,3.68E2,2.4E2,3E2,4.1E1,5.4E1,6.6E1,9.32E2,1.6E1,3E0,1.09E2,1E0,9E0,5.5E1,1.4E1,3E0,3.9E1,6E0,2.5E1,2.64E2,9.41E2,6.7E1,1E0,1.07E2,4E0,1.1E1,2E0,1.68E2,2E2,1.25E2,1.15E2,1.79E2,1.21E2,3.9E1,2E0,1.2E1,4.2E1,1.1E1,5.5E1,1.23E2,8.09E2,1.5E1,1E0,3.9E1,7E1,4E0,5E0,2.1E1,3.4E1,3E0,1.1E1,2E0,1E0,2.9E1,1E1,3E0,3E0,5E0,2E1,2.1E1,2.43E2,8.46E2,9.5E1,6E1,7E0,5.7E1,5E1,3E0,1E0,9E0,2E0,1E0,1E0,3.8E1,1.3E2,1.15E2,8.5E1,4.6E1,7.9E1,9.5E1,2E1,5.8E1,1.21E2,1.15E2,6E0,3E1,9E0,2E0,1E1,2E0,4E1,4E0,7E0,1E1,4.5E1],"tree_param":{"num_deleted":"0","num_feature":"4","num_nodes":"119","size_leaf_vector":"1"}},{"base_weights":[4.2912196E-2,3.6648187E-1,-6.4265317E-1,7.308393E-1,-7.4667186E-1,-8.497998E-1,6.8321794E-1,8.4629923E-1,-2.4129956E0,-4.740295E-1,-4.286445E0,-1.3739395E0,-1.7097853E-1,3.0487695E-1,6.997063E0,5.627423E-1,3.3921037E0,3.574482E0,-4.0620365E0,-1.0420408E-1,-2.824404E0,-5.5515456E0,6.6916456E0,-1.1384455E0,-5.7765875E0,-6.5630305E-1,4.168387E0,-2.506324E-1,3.13689E0,8.8308935E0,3.8577017E-1,1.0454485E0,-1.7405921E0,1.1061378E1,2.157142E0,-3.8720114E0,8.969034E0,-7.187922E0,2.4154031E0,-9.1069984E-1,1.321184E0,-5.2980847E0,-1.4109243E0,-4.478385E0,-4.095058E0,3.57136E0,-7.5179034E-1,-2.5745907E-1,-2.1497066E0,-6.75085E0,2.0002666E0,-1.6341951E0,7.295581E-1,1.0261884E1,2.35996E0,3.3492827E-1,-7.1937413E0,5.520826E0,-3.9910367E-1,2.2708227E-1,1.0050396E1,2.4547864E-1,-7.188206E-2,-1.2815491E0,3.6316946E-1,2.7884338E0,-6.912787E-1,1.10163765E1,2.1700523E0,2.9406295E0,3.312612E-1,-2.8318017E0,7.989956E-1,-7.701611E-1,3.2195895E0,-4.6241055E0,-1.4012661E0,-1.6242989E0,1.5117623E0,1.7181348E-2,-1.0444465E0,-1.7579538E-1,1.4113262E0,2.3514368E-1,-1.9962946E0,-1.005308E0,1.5520982E0,-2.4286413E0,-6.033173E-1,-4.5399943E-1,1.1569376E-1,-1.4515942E-1,2.0897448E0,-2.2018802E0,-5.173706E-1,-2.8685186E0,-1.4911091E0,9.5058554E-1,-2.2571841E-1,-2.8089345E-1,-1.4791684E0,1.4180914E-2,1.1163896E0,1.6107254E0,4.8776436E0,-1.9934062E0,1.2080003E0,2.8039439E0,5.3805526E-2,5.7368433E-1,-2.5253992E0,2.0123477E0,-1.6645758E0,-1.5824966E0,1.3629897E0,7.7700526E-1,3.3073406E0],"categories":[],"categories_nodes":[],"categories_segments":[],"categories_sizes":[],"default_left":[0,0,0,0,0,0,0,0,0,0,0,0,0,0,0,0,0,0,0,0,0,0,0,0,0,0,0,0,0,0,0,0,0,0,0,0,0,0,0,0,0,0,0,0,0,0,0,0,0,0,0,0,0,0,0,0,0,0,0,0,0,0,0,0,0,0,0,0,0,0,0,0,0,0,0,0,0,0,0,0,0,0,0,0,0,0,0,0,0,0,0,0,0,0,0,0,0,0,0,0,0,0,0,0,0,0,0,0,0,0,0,0,0,0,0,0,0],"id":10,"left_children":[1,3,5,7,9,11,13,15,17,19,21,23,25,27,29,31,33,35,37,39,41,43,45,47,49,51,53,55,57,59,61,63,65,67,69,71,73,75,77,79,81,83,85,-1,87,-1,89,91,93,95,97,99,101,103,105,107,109,111,113,-1,115,-1,-1,-1,-1,-1,-1,-1,-1,-1,-1,-1,-1,-1,-1,-1,-1,-1,-1,-1,-1,-1,-1,-1,-1,-1,-1,-1,-1,-1,-1,-1,-1,-1,-1,-1,-1,-1,-1,-1,-1,-1,-1,-1,-1,-1,-1,-1,-1,-1,-1,-1,-1,-1,-1,-1,-1],"loss_changes":[8.163414E2,1.01451025E3,3.2466727E2,6.859095E2,5.9343E2,3.6303394E2,3.800725E2,1.31047E3,6.7605054E2,4.986427E2,6.48238E2,5.90619E2,9.4201196E2,2.399141E2,1.0570929E2,1.8218916E3,1.699908E3,6.372857E2,1.0904916E3,5.7253925E2,2.652516E2,4.851338E2,2.0295865E2,4.8766364E2,2.3322772E2,5.459917E2,4.7166632E2,5.228077E2,2.1294296E2,6.1315857E1,1.0074728E0,1.1939426E3,1.7879855E3,2.1899434E3,1.2610234E3,2.798302E2,2.1058942E2,6.733677E2,3.9707022E2,7.91526E2,1.164189E3,2.3617242E2,6.688503E2,0E0,2.8384656E2,0E0,3.1822228E0,4.841752E2,5.499796E2,8.259778E1,1.524836E1,5.382966E2,3.407095E2,2.0612268E2,5.67048E2,1.6516E2,1.2757861E2,2.3430972E2,2.890503E2,0E0,1.5048096E1,0E0,0E0,0E0,0E0,0E0,0E0,0E0,0E0,0E0,0E0,0E0,0E0,0E0,0E0,0E0,0E0,0E0,0E0,0E0,0E0,0E0,0E0,0E0,0E0,0E0,0E0,0E0,0E0,0E0,0E0,0E0,0E0,0E0,0E0,0E0,0E0,0E0,0E0,0E0,0E0,0E0,0E0,0E0,0E0,0E0,0E0,0E0,0E0,0E0,0E0,0E0,0E0,0E0,0E0,0E0,0E0],"parents":[2147483647,0,0,1,1,2,2,3,3,4,4,5,5,6,6,7,7,8,8,9,9,10,10,11,11,12,12,13,13,14,14,15,15,16,16,17,17,18,18,19,19,20,20,21,21,22,22,23,23,24,24,25,25,26,26,27,27,28,28,29,29,30,30,31,31,32,32,33,33,34,34,35,35,36,36,37,37,38,38,39,39,40,40,41,41,42,42,44,44,46,46,47,47,48,48,49,49,50,50,51,51,52,52,53,53,54,54,55,55,56,56,57,57,58,58,60,60],"right_children":[2,4,6,8,10,12,14,16,18,20,22,24,26,28,30,32,34,36,38,40,42,44,46,48,50,52,54,56,58,60,62,64,66,68,70,72,74,76,78,80,82,84,86,-1,88,-1,90,92,94,96,98,100,102,104,106,108,110,112,114,-1,116,-1,-1,-1,-1,-1,-1,-1,-1,-1,-1,-1,-1,-1,-1,-1,-1,-1,-1,-1,-1,-1,-1,-1,-1,-1,-1,-1,-1,-1,-1,-1,-1,-1,-1,-1,-1,-1,-1,-1,-1,-1,-1,-1,-1,-1,-1,-1,-1,-1,-1,-1,-1,-1,-1,-1,-1],"split_conditions":[1.6457499E1,2.6795223E1,2.479825E1,9.999999E0,1.4183666E1,4E-1,3.3E0,3.7E0,5.9378333E0,3.8723015E1,1.62325E1,3E-1,3.293269E2,3.1287204E2,7.5999994E0,1E0,4E0,1.6158333E0,3.107244E2,3.223357E1,4.0729347E1,1.4803725E2,9E-1,2.5957587E2,2.362E1,2.0706585E1,8E-1,2.9645764E2,3.358398E2,1.024578E1,8.400001E0,2.4860281E1,9.290511E0,1.3896187E1,1.52325E0,2.194524E1,1.0400001E1,8.296167E0,1.24E1,3.0353355E1,8.577415E0,4.4795003E0,9.660749E0,-4.478385E0,1.4739915E1,3.57136E0,1.6354502E1,3.1205997E1,2.7559082E2,2.5699503E2,1.6203999E1,2.6795223E1,2.7219902E1,3.3958905E2,9.000001E-1,4.6927953E0,2.5056585E1,7E-1,2.6873253E1,2.2708227E-1,1.252913E2,2.4547864E-1,-7.188206E-2,-1.2815491E0,3.6316946E-1,2.7884338E0,-6.912787E-1,1.10163765E1,2.1700523E0,2.9406295E0,3.312612E-1,-2.8318017E0,7.989956E-1,-7.701611E-1,3.2195895E0,-4.6241055E0,-1.4012661E0,-1.6242989E0,1.5117623E0,1.7181348E-2,-1.0444465E0,-1.7579538E-1,1.4113262E0,2.3514368E-1,-1.9962946E0,-1.005308E0,1.5520982E0,-2.4286413E0,-6.033173E-1,-4.5399943E-1,1.1569376E-1,-1.4515942E-1,2.0897448E0,-2.2018802E0,-5.173706E-1,-2.8685186E0,-1.4911091E0,9.5058554E-1,-2.2571841E-1,-2.8089345E-1,-1.4791684E0,1.4180914E-2,1.1163896E0,1.6107254E0,4.8776436E0,-1.9934062E0,1.2080003E0,2.8039439E0,5.3805526E-2,5.7368433E-1,-2.5253992E0,2.0123477E0,-1.6645758E0,-1.5824966E0,1.3629897E0,7.7700526E-1,3.3073406E0],"split_indices":[0,2,0,1,0,1,1,1,0,2,0,1,3,3,1,1,1,0,3,2,2,3,1,3,0,0,1,3,3,2,1,3,2,2,0,2,1,0,1,2,0,0,0,0,0,0,0,2,3,3,2,2,2,3,1,3,0,1,0,0,3,0,0,0,0,0,0,0,0,0,0,0,0,0,0,0,0,0,0,0,0,0,0,0,0,0,0,0,0,0,0,0,0,0,0,0,0,0,0,0,0,0,0,0,0,0,0,0,0,0,0,0,0,0,0,0,0],"split_type":[0,0,0,0,0,0,0,0,0,0,0,0,0,0,0,0,0,0,0,0,0,0,0,0,0,0,0,0,0,0,0,0,0,0,0,0,0,0,0,0,0,0,0,0,0,0,0,0,0,0,0,0,0,0,0,0,0,0,0,0,0,0,0,0,0,0,0,0,0,0,0,0,0,0,0,0,0,0,0,0,0,0,0,0,0,0,0,0,0,0,0,0,0,0,0,0,0,0,0,0,0,0,0,0,0,0,0,0,0,0,0,0,0,0,0,0,0],"sum_hessian":[3.678E3,2.499E3,1.179E3,1.883E3,6.16E2,1.02E3,1.59E2,1.817E3,6.6E1,5.73E2,4.3E1,5.75E2,4.45E2,1.51E2,8E0,1.636E3,1.81E2,1.4E1,5.2E1,4.96E2,7.7E1,3.9E1,4E0,5.47E2,2.8E1,4.01E2,4.4E1,1.27E2,2.4E1,6E0,2E0,1.353E3,2.83E2,2.4E1,1.57E2,6E0,8E0,3.5E1,1.7E1,3.17E2,1.79E2,2.7E1,5E1,4E0,3.5E1,2E0,2E0,2.93E2,2.54E2,2.5E1,3E0,2.35E2,1.66E2,9E0,3.5E1,1.18E2,9E0,1.4E1,1E1,1E0,5E0,1E0,1E0,4E1,1.313E3,1.3E1,2.7E2,2E0,2.2E1,1.8E1,1.39E2,3E0,3E0,1E0,7E0,7E0,2.8E1,4E0,1.3E1,2.31E2,8.6E1,1.15E2,6.4E1,5E0,2.2E1,3.9E1,1.1E1,1.1E1,2.4E1,1E0,1E0,2.85E2,8E0,1.8E1,2.36E2,8E0,1.7E1,2E0,1E0,1.95E2,4E1,1.36E2,3E1,6E0,3E0,5E0,3E1,1E0,1.17E2,1E0,8E0,1.3E1,1E0,5E0,5E0,1E0,4E0],"tree_param":{"num_deleted":"0","num_feature":"4","num_nodes":"117","size_leaf_vector":"1"}},{"base_weights":[3.3522412E-2,7.9546726E-1,-2.1026823E-1,1.4303768E0,-2.9185435E-2,1.1591201E0,-3.367725E-1,4.8051644E-3,2.627007E0,1.2397305E0,-8.7500465E-1,7.0978785E-1,8.812298E0,-8.583149E-1,8.72891E-2,-2.0062584E-1,7.088091E0,2.1741785E1,2.0444405E0,5.234511E-1,6.0842576E0,-1.1258685E1,-6.9141275E-1,1.6531293E-1,5.4608374E0,1.3526314E1,-5.1758175E0,2.4497025E0,-1.2588391E0,-2.6706252E0,3.3910534E-1,1.6987818E0,-2.6434216E0,-3.4327278E0,1.12599125E1,7.8774643E0,1.8546963E0,2.2229078E-1,1.3901181E1,2.8914716E0,3.480195E0,-4.0204053E0,-7.246033E-1,-1.6525809E0,1.5428822E0,1.151356E1,-1.8115811E-1,7.3885193E0,2.4625747E0,7.4544544E0,1.0225958E1,-3.0805914E0,1.5153964E0,1.9362394E0,1.4282878E1,-2.673063E0,-2.1046126E-1,9.529979E0,-3.294811E0,1.5015514E0,-4.135847E-1,6.519829E-1,-1.4766016E0,-4.4575195E0,-3.4135127E-1,1.1327286E0,-3.7587297E0,5.077099E-1,6.730821E0,5.6885956E-3,2.7487314E0,8.1504E0,-1.8948685E0,1.5130662E0,-2.0042045E0,-3.527682E-1,-2.6341894E0,5.080544E0,-2.149092E-1,6.3020334E0,-1.4945748E0,-1.5398928E0,1.7052773E-1,4.6358976E0,3.121213E-1,3.2037585E0,-2.7515197E0,1.0962988E0,-6.5224385E-1,-1.2630341E0,8.404473E0,-6.297445E-1,-1.980038E0,1.7192155E0,-1.7905447E-1,-3.3296359E0,4.7626467E0,-1.4602696E0,6.1303712E-2,1.041985E0,9.673756E-2,3.8332227E-1,-2.495198E-1],"categories":[],"categories_nodes":[],"categories_segments":[],"categories_sizes":[],"default_left":[0,0,0,0,0,0,0,0,0,0,0,0,0,0,0,0,0,0,0,0,0,0,0,0,0,0,0,0,0,0,0,0,0,0,0,0,0,0,0,0,0,0,0,0,0,0,0,0,0,0,0,0,0,0,0,0,0,0,0,0,0,0,0,0,0,0,0,0,0,0,0,0,0,0,0,0,0,0,0,0,0,0,0,0,0,0,0,0,0,0,0,0,0,0,0,0,0,0,0,0,0,0,0],"id":11,"left_children":[1,3,5,7,9,11,13,15,17,19,21,23,25,27,29,31,-1,33,35,37,39,41,43,45,47,49,51,53,55,57,59,61,63,65,-1,-1,67,69,71,73,-1,-1,-1,75,77,79,81,-1,83,85,-1,-1,-1,87,89,91,93,95,97,99,101,-1,-1,-1,-1,-1,-1,-1,-1,-1,-1,-1,-1,-1,-1,-1,-1,-1,-1,-1,-1,-1,-1,-1,-1,-1,-1,-1,-1,-1,-1,-1,-1,-1,-1,-1,-1,-1,-1,-1,-1,-1,-1],"loss_changes":[6.8355994E2,4.67075E2,4.833653E2,8.5975195E2,4.1858813E2,8.053066E2,5.647119E2,1.1257196E3,3.0067124E3,5.381406E2,4.383037E2,5.785465E2,9.2723236E2,1.5201416E3,9.794386E2,1.0716595E3,0E0,3.309137E3,1.1780105E3,5.488611E2,3.187102E2,4.342447E1,4.9862988E2,7.9631726E2,1.2611465E3,9.942909E2,2.6021008E2,7.257566E2,1.5146969E3,9.3002185E2,1.1310714E3,4.1909518E2,1.8405516E3,3.0959125E2,0E0,0E0,8.5072894E2,2.4522783E2,9.762613E2,3.2209525E2,0E0,0E0,0E0,5.401261E2,2.4463755E3,1.0442249E3,7.3414276E2,0E0,3.7188898E2,5.8048285E2,0E0,0E0,0E0,8.553865E2,1.3876776E3,9.6654834E2,1.3532299E3,9.615988E2,6.2286926E2,1.1799065E3,5.562338E2,0E0,0E0,0E0,0E0,0E0,0E0,0E0,0E0,0E0,0E0,0E0,0E0,0E0,0E0,0E0,0E0,0E0,0E0,0E0,0E0,0E0,0E0,0E0,0E0,0E0,0E0,0E0,0E0,0E0,0E0,0E0,0E0,0E0,0E0,0E0,0E0,0E0,0E0,0E0,0E0,0E0,0E0],"parents":[2147483647,0,0,1,1,2,2,3,3,4,4,5,5,6,6,7,7,8,8,9,9,10,10,11,11,12,12,13,13,14,14,15,15,17,17,18,18,19,19,20,20,21,21,22,22,23,23,24,24,25,25,26,26,27,27,28,28,29,29,30,30,31,31,32,32,33,33,36,36,37,37,38,38,39,39,43,43,44,44,45,45,46,46,48,48,49,49,53,53,54,54,55,55,56,56,57,57,58,58,59,59,60,60],"right_children":[2,4,6,8,10,12,14,16,18,20,22,24,26,28,30,32,-1,34,36,38,40,42,44,46,48,50,52,54,56,58,60,62,64,66,-1,-1,68,70,72,74,-1,-1,-1,76,78,80,82,-1,84,86,-1,-1,-1,88,90,92,94,96,98,100,102,-1,-1,-1,-1,-1,-1,-1,-1,-1,-1,-1,-1,-1,-1,-1,-1,-1,-1,-1,-1,-1,-1,-1,-1,-1,-1,-1,-1,-1,-1,-1,-1,-1,-1,-1,-1,-1,-1,-1,-1,-1,-1],"split_conditions":[1.5208258E2,1.2300334E1,1.1295E0,3.8649166E0,1.3608762E1,9.899166E-1,2.8576804E2,1.5115956E2,3.9940836E0,1.4036797E2,1.2387833E1,3.1E0,2.2870626E1,4.0399165E0,3.302416E0,7.586667E-1,7.088091E0,1.2354535E2,7.072878E0,1.3527572E1,2.2015837E1,1.3682793E2,2.1829777E1,1.5651297E2,1.0182337E1,2.194524E1,1.2000002E0,3.9940836E0,1.2387833E1,1.0041354E1,1.1838752E1,1.4564105E2,1.1295E0,1E-1,1.12599125E1,7.8774643E0,3.374796E1,2.820867E1,1.4287833E1,2.1275337E1,3.480195E0,-4.0204053E0,-7.246033E-1,2.1194187E1,2.2553934E1,2.194524E1,1.8684267E2,7.3885193E0,-2.6154168E0,5.3999996E0,1.0225958E1,-3.0805914E0,1.5153964E0,9.000001E-1,2.194524E1,1.1281583E1,1.291908E1,1.52325E0,1.2000002E0,1E-1,1.4565548E1,6.519829E-1,-1.4766016E0,-4.4575195E0,-3.4135127E-1,1.1327286E0,-3.7587297E0,5.077099E-1,6.730821E0,5.6885956E-3,2.7487314E0,8.1504E0,-1.8948685E0,1.5130662E0,-2.0042045E0,-3.527682E-1,-2.6341894E0,5.080544E0,-2.149092E-1,6.3020334E0,-1.4945748E0,-1.5398928E0,1.7052773E-1,4.6358976E0,3.121213E-1,3.2037585E0,-2.7515197E0,1.0962988E0,-6.5224385E-1,-1.2630341E0,8.404473E0,-6.297445E-1,-1.980038E0,1.7192155E0,-1.7905447E-1,-3.3296359E0,4.7626467E0,-1.4602696E0,6.1303712E-2,1.041985E0,9.673756E-2,3.8332227E-1,-2.495198E-1],"split_indices":[3,0,0,0,2,0,3,3,0,3,0,1,2,0,0,0,0,3,2,2,0,3,2,3,2,2,1,0,0,2,0,3,0,1,0,0,2,0,0,0,0,0,0,2,2,2,3,0,0,1,0,0,0,1,2,0,0,0,1,1,2,0,0,0,0,0,0,0,0,0,0,0,0,0,0,0,0,0,0,0,0,0,0,0,0,0,0,0,0,0,0,0,0,0,0,0,0,0,0,0,0,0,0],"split_type":[0,0,0,0,0,0,0,0,0,0,0,0,0,0,0,0,0,0,0,0,0,0,0,0,0,0,0,0,0,0,0,0,0,0,0,0,0,0,0,0,0,0,0,0,0,0,0,0,0,0,0,0,0,0,0,0,0,0,0,0,0,0,0,0,0,0,0,0,0,0,0,0,0,0,0,0,0,0,0,0,0,0,0,0,0,0,0,0,0,0,0,0,0,0,0,0,0,0,0,0,0,0,0],"sum_hessian":[3.678E3,8.91E2,2.787E3,5.03E2,3.88E2,2.35E2,2.552E3,2.3E2,2.73E2,1.55E2,2.33E2,2.23E2,1.2E1,1.144E3,1.408E3,2.29E2,1E0,7E0,2.66E2,1.36E2,1.9E1,3E0,2.3E2,2.01E2,2.2E1,9E0,3E0,1.23E2,1.021E3,1.17E2,1.291E3,1.29E2,1E2,3E0,4E0,1E0,2.65E2,1.34E2,2E0,1.3E1,6E0,2E0,1E0,1.61E2,6.9E1,5E0,1.96E2,2E0,2E1,8E0,1E0,2E0,1E0,1.19E2,4E0,4.34E2,5.87E2,5E0,1.12E2,5.07E2,7.84E2,1.21E2,8E0,1E1,9E1,2E0,1E0,2.64E2,1E0,1.32E2,2E0,1E0,1E0,1.1E1,2E0,1.52E2,9E0,8E0,6.1E1,3E0,2E0,2.5E1,1.71E2,1E0,1.9E1,7E0,1E0,8.4E1,3.5E1,2E0,2E0,3.8E2,5.4E1,3.5E1,5.52E2,1E0,4E0,7.7E1,3.5E1,1.89E2,3.18E2,1.55E2,6.29E2],"tree_param":{"num_deleted":"0","num_feature":"4","num_nodes":"103","size_leaf_vector":"1"}},{"base_weights":[4.169265E-2,8.8601714E-1,-1.05733834E-1,3.8555357E-1,4.1823316E0,-3.4149938E0,-5.8577467E-2,7.558528E-1,-5.8003807E0,-1.0354564E0,7.1540256E0,5.3017526E0,-8.58534E0,3.3710015E0,-1.0808285E-1,2.4157376E0,-2.99349E-1,-1.0351053E1,2.9708679E0,-2.932052E0,6.0913033E0,1.001843E1,-8.878027E-1,1.1848669E1,-1.8342476E0,-5.2029176E0,-4.840241E0,-5.679954E-1,1.0299746E1,-2.9938345E0,-6.5778874E-2,8.2140476E-1,1.7185337E1,-6.4065135E-1,9.897138E0,-3.288871E0,-1.21339E1,9.982349E0,-3.367178E0,2.6746702E0,-6.326941E0,2.5950758E0,6.489372E-1,1.1728894E1,-5.742278E0,-3.9008808E0,3.277602E0,5.0053263E0,4.6431847E0,-2.1459625E0,1.9808265E0,-1.0556288E1,-1.2281971E0,-1.1971811E1,1.7354875E0,8.817053E-1,1.7526922E1,-1.3281401E0,-1.5720622E1,4.262718E-3,-1.7063811E0,-2.5595543E-1,8.269348E-1,6.6375184E0,1.3325005E0,-5.486955E-2,-3.3956387E0,3.8513834E0,-2.0443974E0,4.003158E-1,-3.2672849E0,-1.8438723E0,-5.1730576E0,3.8665433E0,-2.4632436E-1,-2.4969234E0,-2.1341468E-1,-1.0743018E0,1.9198028E0,9.676361E-1,-2.4563384E0,6.022116E-1,-3.1018984E-1,5.667473E0,2.0534525E0,-2.02238E0,-4.1179678E-1,-3.090302E0,5.9981877E-1,4.2060757E0,-5.024936E-1,1.8766395E0,-2.7089024E-1,1.2547188E0,-6.0707936E0,5.608705E0,-1.2596798E0,-4.4089084E0,-1.5769975E0,3.4418218E0,-1.0564848E0,4.7441964E0,-2.019416E0,6.1262217E0,2.64134E0,5.752946E-1,-1.6205255E0,-5.7395425E0,-3.113823E-1,-3.0034313E-2,7.981719E-1,-1.2781684E0,1.2664665E-1],"categories":[],"categories_nodes":[],"categories_segments":[],"categories_sizes":[],"default_left":[0,0,0,0,0,0,0,0,0,0,0,0,0,0,0,0,0,0,0,0,0,0,0,0,0,0,0,0,0,0,0,0,0,0,0,0,0,0,0,0,0,0,0,0,0,0,0,0,0,0,0,0,0,0,0,0,0,0,0,0,0,0,0,0,0,0,0,0,0,0,0,0,0,0,0,0,0,0,0,0,0,0,0,0,0,0,0,0,0,0,0,0,0,0,0,0,0,0,0,0,0,0,0,0,0,0,0,0,0,0,0,0,0],"id":12,"left_children":[1,3,5,7,9,11,13,15,17,19,21,23,25,27,29,31,33,35,37,39,41,43,45,47,49,-1,51,53,55,57,59,61,63,65,67,69,71,73,75,77,79,-1,81,83,85,87,89,-1,91,-1,-1,93,95,97,99,101,103,105,107,109,111,-1,-1,-1,-1,-1,-1,-1,-1,-1,-1,-1,-1,-1,-1,-1,-1,-1,-1,-1,-1,-1,-1,-1,-1,-1,-1,-1,-1,-1,-1,-1,-1,-1,-1,-1,-1,-1,-1,-1,-1,-1,-1,-1,-1,-1,-1,-1,-1,-1,-1,-1,-1],"loss_changes":[4.5804013E2,9.0076526E2,4.88713E2,1.094732E3,1.1238159E3,2.0285356E3,5.249927E2,7.889043E2,1.1084587E3,3.828077E2,1.0685066E3,8.159529E2,8.3441406E2,1.2067117E3,3.7177713E2,4.106724E3,9.66844E2,1.867273E2,4.7800323E2,4.3567487E2,7.7946976E1,9.8392725E2,1.7594449E2,2.3612646E2,4.5111557E2,0E0,4.2061362E2,7.8256323E2,1.0735997E3,9.11874E2,3.451981E2,5.175762E2,9.7188184E2,1.3079008E3,5.2980164E2,1.9026454E2,3.2234277E2,1.6756326E2,7.3050255E1,2.326192E2,2.7526788E2,0E0,8.933897E0,9.5516064E2,8.207367E0,3.2269586E2,3.4270667E2,0E0,5.035824E1,0E0,0E0,1.2259619E3,9.0714197E2,1.4225098E1,1.320146E3,1.01589685E3,4.7376953E1,5.3924194E2,2.3056909E2,7.993236E2,6.705086E2,0E0,0E0,0E0,0E0,0E0,0E0,0E0,0E0,0E0,0E0,0E0,0E0,0E0,0E0,0E0,0E0,0E0,0E0,0E0,0E0,0E0,0E0,0E0,0E0,0E0,0E0,0E0,0E0,0E0,0E0,0E0,0E0,0E0,0E0,0E0,0E0,0E0,0E0,0E0,0E0,0E0,0E0,0E0,0E0,0E0,0E0,0E0,0E0,0E0,0E0,0E0,0E0],"parents":[2147483647,0,0,1,1,2,2,3,3,4,4,5,5,6,6,7,7,8,8,9,9,10,10,11,11,12,12,13,13,14,14,15,15,16,16,17,17,18,18,19,19,20,20,21,21,22,22,23,23,24,24,26,26,27,27,28,28,29,29,30,30,31,31,32,32,33,33,34,34,35,35,36,36,37,37,38,38,39,39,40,40,42,42,43,43,44,44,45,45,46,46,48,48,51,51,52,52,53,53,54,54,55,55,56,56,57,57,58,58,59,59,60,60],"right_children":[2,4,6,8,10,12,14,16,18,20,22,24,26,28,30,32,34,36,38,40,42,44,46,48,50,-1,52,54,56,58,60,62,64,66,68,70,72,74,76,78,80,-1,82,84,86,88,90,-1,92,-1,-1,94,96,98,100,102,104,106,108,110,112,-1,-1,-1,-1,-1,-1,-1,-1,-1,-1,-1,-1,-1,-1,-1,-1,-1,-1,-1,-1,-1,-1,-1,-1,-1,-1,-1,-1,-1,-1,-1,-1,-1,-1,-1,-1,-1,-1,-1,-1,-1,-1,-1,-1,-1,-1,-1,-1,-1,-1,-1,-1],"split_conditions":[1.3542595E2,2.1599998E1,1.3789386E2,2.0497883E1,1.252913E2,1.8875126E1,1.3969135E2,7.969084E0,3.4999998E0,2.6000001E0,2.6795223E1,1.3609549E2,1.3609549E2,2.0380579E1,1.413258E2,7.1628337E0,1.3450702E2,2.0780453E1,5.3999996E0,1E-1,1.07693825E2,1.9000001E0,1E-1,9.494083E0,1.7119083E1,-5.2029176E0,2.2380884E1,-8.600833E-1,4.215833E0,9.000001E-1,1.1099999E1,1.3684735E1,2E-1,1.328634E2,1.9492002E1,1.4739915E1,5.4669995E0,1.0774167E1,2.0620804E1,5.420001E-1,-3.0362504E0,2.5950758E0,8.661667E0,1.3035587E2,3.3000002E0,2.804305E1,2.7595823E1,5.0053263E0,2.2667002E1,-2.1459625E0,1.9808265E0,2.1194187E1,2.2553934E1,3E-1,4.7795E0,-1.0830001E0,9.050332E0,2.226768E1,3.2000003E0,7.8E0,2.915298E2,-2.5595543E-1,8.269348E-1,6.6375184E0,1.3325005E0,-5.486955E-2,-3.3956387E0,3.8513834E0,-2.0443974E0,4.003158E-1,-3.2672849E0,-1.8438723E0,-5.1730576E0,3.8665433E0,-2.4632436E-1,-2.4969234E0,-2.1341468E-1,-1.0743018E0,1.9198028E0,9.676361E-1,-2.4563384E0,6.022116E-1,-3.1018984E-1,5.667473E0,2.0534525E0,-2.02238E0,-4.1179678E-1,-3.090302E0,5.9981877E-1,4.2060757E0,-5.024936E-1,1.8766395E0,-2.7089024E-1,1.2547188E0,-6.0707936E0,5.608705E0,-1.2596798E0,-4.4089084E0,-1.5769975E0,3.4418218E0,-1.0564848E0,4.7441964E0,-2.019416E0,6.1262217E0,2.64134E0,5.752946E-1,-1.6205255E0,-5.7395425E0,-3.113823E-1,-3.0034313E-2,7.981719E-1,-1.2781684E0,1.2664665E-1],"split_indices":[3,2,3,2,3,2,3,0,1,1,2,3,3,2,3,0,3,2,1,1,3,1,1,0,0,0,2,0,0,1,1,2,1,3,0,0,0,0,2,0,0,0,0,3,1,2,2,0,0,0,0,2,2,1,0,0,0,2,1,1,3,0,0,0,0,0,0,0,0,0,0,0,0,0,0,0,0,0,0,0,0,0,0,0,0,0,0,0,0,0,0,0,0,0,0,0,0,0,0,0,0,0,0,0,0,0,0,0,0,0,0,0,0],"split_type":[0,0,0,0,0,0,0,0,0,0,0,0,0,0,0,0,0,0,0,0,0,0,0,0,0,0,0,0,0,0,0,0,0,0,0,0,0,0,0,0,0,0,0,0,0,0,0,0,0,0,0,0,0,0,0,0,0,0,0,0,0,0,0,0,0,0,0,0,0,0,0,0,0,0,0,0,0,0,0,0,0,0,0,0,0,0,0,0,0,0,0,0,0,0,0,0,0,0,0,0,0,0,0,0,0,0,0,0,0,0,0,0,0],"sum_hessian":[3.678E3,5.46E2,3.132E3,4.75E2,7.1E1,4.3E1,3.089E3,4.49E2,2.6E1,2.6E1,4.5E1,1.6E1,2.7E1,4.3E1,3.046E3,1.74E2,2.75E2,1.7E1,9E0,2.1E1,5E0,3.3E1,1.2E1,8E0,8E0,7E0,2E1,2.8E1,1.5E1,4.3E1,3.003E3,1.58E2,1.6E1,2.67E2,8E0,4E0,1.3E1,4E0,5E0,8E0,1.3E1,3E0,2E0,3E1,3E0,7E0,5E0,4E0,4E0,5E0,3E0,7E0,1.3E1,4E0,2.4E1,7E0,8E0,3.9E1,4E0,2.881E3,1.22E2,8.5E1,7.3E1,1.1E1,5E0,2.57E2,1E1,7E0,1E0,3E0,1E0,7E0,6E0,3E0,1E0,1E0,4E0,3E0,5E0,2E0,1.1E1,1E0,1E0,1.1E1,1.9E1,2E0,1E0,3E0,4E0,1E0,4E0,3E0,1E0,3E0,4E0,1E0,1.2E1,2E0,2E0,8E0,1.6E1,2E0,5E0,5E0,3E0,2.2E1,1.7E1,3E0,1E0,2.773E3,1.08E2,5.5E1,6.7E1],"tree_param":{"num_deleted":"0","num_feature":"4","num_nodes":"113","size_leaf_vector":"1"}},{"base_weights":[3.1320125E-2,3.888737E0,-3.9325297E-4,1.1417781E1,1.1008636E0,6.358693E-2,-1.5699184E0,1.30393095E1,1.0061646E-2,-1.1112518E0,2.786019E0,2.0649193E-2,1.0060978E1,-3.319269E0,4.6396104E-1,1.7280991E0,4.439651E0,-5.19123E0,3.0798516E0,3.9461702E-2,-4.3452296E0,6.483066E0,-3.9652508E-2,-1.2451809E1,-2.7807631E0,-3.0433846E0,4.395226E0,-7.281748E0,2.0435143E0,-5.5596313E0,9.766112E0,-2.01501E-2,1.4617729E0,-7.7936053E-1,-5.504676E0,5.1973715E0,-3.524393E0,1.8476486E-2,-4.9930415E0,4.0588257E-1,-4.620025E0,2.3654132E0,-4.933925E0,1.2734077E1,1.5509849E0,-2.5963504E0,-4.95422E-1,-2.0639386E0,-4.184647E-2,1.1087208E0,4.381373E0,9.524351E-2,-1.0305775E-1,1.7907485E-1,2.4381318E0,2.4860382E0,-9.543292E-1,2.153686E0,6.4315796E-1,7.4126875E-1,-1.565289E0,-9.066601E-1,1.5685529E0,-2.018725E0,-7.484674E-1,-1.0379895E0,1.6068854E0,-3.5446894E0,-4.2434695E-1,-4.9044743E-1,4.5060973E0,1.7423292E0,-8.4753025E-1],"categories":[],"categories_nodes":[],"categories_segments":[],"categories_sizes":[],"default_left":[0,0,0,0,0,0,0,0,0,0,0,0,0,0,0,0,0,0,0,0,0,0,0,0,0,0,0,0,0,0,0,0,0,0,0,0,0,0,0,0,0,0,0,0,0,0,0,0,0,0,0,0,0,0,0,0,0,0,0,0,0,0,0,0,0,0,0,0,0,0,0,0,0],"id":13,"left_children":[1,3,5,7,9,11,13,15,-1,17,-1,19,21,23,25,-1,-1,27,29,31,33,-1,35,37,39,41,43,45,-1,47,49,51,53,55,-1,57,59,-1,-1,61,63,65,67,69,71,-1,-1,-1,-1,-1,-1,-1,-1,-1,-1,-1,-1,-1,-1,-1,-1,-1,-1,-1,-1,-1,-1,-1,-1,-1,-1,-1,-1],"loss_changes":[4.500599E2,6.1713116E2,3.6662738E2,1.4724158E2,4.2680573E2,1.5056552E3,5.1032953E2,4.4067383E0,0E0,3.4088083E2,0E0,2.8714465E2,1.7506764E3,3.4405463E2,9.371928E2,0E0,0E0,3.0052484E2,6.319543E2,2.950866E2,7.347295E2,0E0,1.8256462E2,2.1083276E2,4.355949E2,3.7979065E2,7.392162E2,5.526956E1,0E0,3.4817734E1,1.2225311E2,3.648823E2,8.0218695E2,3.094298E2,0E0,8.812462E0,7.380088E1,0E0,0E0,4.7870782E2,1.9386713E2,1.9276212E2,6.3721924E2,2.873623E2,4.8210822E2,0E0,0E0,0E0,0E0,0E0,0E0,0E0,0E0,0E0,0E0,0E0,0E0,0E0,0E0,0E0,0E0,0E0,0E0,0E0,0E0,0E0,0E0,0E0,0E0,0E0,0E0,0E0,0E0],"parents":[2147483647,0,0,1,1,2,2,3,3,4,4,5,5,6,6,7,7,9,9,11,11,12,12,13,13,14,14,17,17,18,18,19,19,20,20,22,22,23,23,24,24,25,25,26,26,27,27,29,29,30,30,31,31,32,32,33,33,35,35,36,36,39,39,40,40,41,41,42,42,43,43,44,44],"right_children":[2,4,6,8,10,12,14,16,-1,18,-1,20,22,24,26,-1,-1,28,30,32,34,-1,36,38,40,42,44,46,-1,48,50,52,54,56,-1,58,60,-1,-1,62,64,66,68,70,72,-1,-1,-1,-1,-1,-1,-1,-1,-1,-1,-1,-1,-1,-1,-1,-1,-1,-1,-1,-1,-1,-1,-1,-1,-1,-1,-1,-1],"split_conditions":[-4.568417E0,1.24811535E1,3.4467383E2,1E-1,3.3741812E2,3.438845E2,1E-1,9.726664E0,1.0061646E-2,-6.253834E0,2.786019E0,3.4303375E2,1.0277417E1,9.504273E0,9.660749E0,1.7280991E0,4.439651E0,6E-1,1.8947083E1,3.347491E2,1.6E0,6.483066E0,1.62325E1,7.072878E0,1.08795E1,9.899166E-1,1.4831584E1,4E-1,2.0435143E0,1.3903781E2,2.3535301E1,2.6523645E2,5.1E0,-1.2663332E0,-5.504676E0,1.3202726E1,1.8806337E1,1.8476486E-2,-4.9930415E0,4.215833E0,1.7409582E1,-2.2425E0,4.0399165E0,3.4700537E2,1.5905319E1,-2.5963504E0,-4.95422E-1,-2.0639386E0,-4.184647E-2,1.1087208E0,4.381373E0,9.524351E-2,-1.0305775E-1,1.7907485E-1,2.4381318E0,2.4860382E0,-9.543292E-1,2.153686E0,6.4315796E-1,7.4126875E-1,-1.565289E0,-9.066601E-1,1.5685529E0,-2.018725E0,-7.484674E-1,-1.0379895E0,1.6068854E0,-3.5446894E0,-4.2434695E-1,-4.9044743E-1,4.5060973E0,1.7423292E0,-8.4753025E-1],"split_indices":[0,2,3,1,3,3,1,2,0,0,0,3,0,2,0,0,0,1,2,3,1,0,0,2,0,0,0,1,0,3,2,3,1,0,0,2,2,0,0,0,0,0,0,3,2,0,0,0,0,0,0,0,0,0,0,0,0,0,0,0,0,0,0,0,0,0,0,0,0,0,0,0,0],"split_type":[0,0,0,0,0,0,0,0,0,0,0,0,0,0,0,0,0,0,0,0,0,0,0,0,0,0,0,0,0,0,0,0,0,0,0,0,0,0,0,0,0,0,0,0,0,0,0,0,0,0,0,0,0,0,0,0,0,0,0,0,0,0,0,0,0,0,0,0,0,0,0,0,0],"sum_hessian":[3.678E3,2.9E1,3.649E3,7E0,2.2E1,3.507E3,1.42E2,6E0,1E0,1.8E1,4E0,3.493E3,1.4E1,7.6E1,6.6E1,2E0,4E0,9E0,9E0,3.479E3,1.4E1,6E0,8E0,3E0,7.3E1,3.5E1,3.1E1,8E0,1E0,4E0,5E0,3.34E3,1.39E2,1.2E1,2E0,3E0,5E0,1E0,2E0,2.7E1,4.6E1,9E0,2.6E1,7E0,2.4E1,6E0,2E0,3E0,1E0,3E0,2E0,1.634E3,1.706E3,1.24E2,1.5E1,2E0,1E1,1E0,2E0,1E0,4E0,1.6E1,1.1E1,2.2E1,2.4E1,3E0,6E0,8E0,1.8E1,1E0,6E0,1.2E1,1.2E1],"tree_param":{"num_deleted":"0","num_feature":"4","num_nodes":"73","size_leaf_vector":"1"}},{"base_weights":[2.5408763E-2,3.0987782E0,1.4123264E-4,8.764671E0,9.9330324E-1,3.8384023E0,-1.6753491E-2,3.0025868E0,8.55217E-3,-6.549263E-1,2.1173744E0,1.3068424E1,7.031338E-1,-4.1601396E0,4.151209E-4,-3.7386863E0,2.4943264E0,5.68593E0,1.4367502E0,-9.005448E0,3.2870078E0,-6.753424E0,2.3771157E0,3.6752783E-2,-1.7418339E0,-5.4407525E0,1.7369866E0,-5.778887E0,6.8655443E0,-1.018364E-1,-3.9506156E0,4.0786204E0,-6.94368E-1,4.1044426E-1,-9.49118E0,1.7768023E0,1.0057449E-2,2.1055904E-1,-3.8259017E-1,-5.672423E0,-7.301562E-1,-1.8904301E0,2.1670419E-1,-2.941658E0,-3.5044938E-1,7.8047013E-1,3.5050976E0,3.0330735E-1,1.5746617E0,-4.9336013E-1,9.863068E-1,-3.04251E0,-7.406325E-1,-2.4006921E-1,3.6613828E-1,4.8830155E-2,2.4437711E0,-2.6426524E-1,1.1372501E-1,-1.893281E0,-3.0441704E-1,8.282722E-2,-1.5712883E0],"categories":[],"categories_nodes":[],"categories_segments":[],"categories_sizes":[],"default_left":[0,0,0,0,0,0,0,0,0,0,0,0,0,0,0,0,0,0,0,0,0,0,0,0,0,0,0,0,0,0,0,0,0,0,0,0,0,0,0,0,0,0,0,0,0,0,0,0,0,0,0,0,0,0,0,0,0,0,0,0,0,0,0],"id":14,"left_children":[1,3,5,7,9,11,13,-1,-1,15,-1,17,19,21,23,25,27,-1,-1,29,31,33,35,37,39,41,-1,43,45,-1,-1,47,-1,49,51,-1,53,55,57,59,61,-1,-1,-1,-1,-1,-1,-1,-1,-1,-1,-1,-1,-1,-1,-1,-1,-1,-1,-1,-1,-1,-1],"loss_changes":[2.8569766E2,3.4917593E2,2.367535E2,8.6653564E1,2.3452745E2,4.538287E2,2.5858173E2,0E0,0E0,1.9384476E2,0E0,1.041134E2,3.557158E2,2.703482E2,2.2930684E2,1.936855E2,4.013154E2,0E0,0E0,1.0376645E2,5.82172E1,2.1963776E2,4.1903145E1,2.5867453E2,2.9011847E2,5.2291992E1,0E0,6.280841E1,1.1341449E2,0E0,0E0,3.0591858E1,0E0,2.9057415E1,1.1508057E1,0E0,4.899752E0,9.501997E2,3.9505273E2,3.8206207E1,2.7358383E2,0E0,0E0,0E0,0E0,0E0,0E0,0E0,0E0,0E0,0E0,0E0,0E0,0E0,0E0,0E0,0E0,0E0,0E0,0E0,0E0,0E0,0E0],"parents":[2147483647,0,0,1,1,2,2,3,3,4,4,5,5,6,6,9,9,11,11,12,12,13,13,14,14,15,15,16,16,19,19,20,20,21,21,22,22,23,23,24,24,25,25,27,27,28,28,31,31,33,33,34,34,36,36,37,37,38,38,39,39,40,40],"right_children":[2,4,6,8,10,12,14,-1,-1,16,-1,18,20,22,24,26,28,-1,-1,30,32,34,36,38,40,42,-1,44,46,-1,-1,48,-1,50,52,-1,54,56,58,60,62,-1,-1,-1,-1,-1,-1,-1,-1,-1,-1,-1,-1,-1,-1,-1,-1,-1,-1,-1,-1,-1,-1],"split_conditions":[-4.568417E0,1.24811535E1,7.072878E0,1E-1,3.3741812E2,7.2006805E1,3.6274498E0,3.0025868E0,8.55217E-3,-6.253834E0,2.1173744E0,7.969084E0,8.296004E1,1.4183666E1,3.9828434E1,6E-1,1.8806337E1,5.68593E0,1.4367502E0,-1.0830001E0,7.3E0,1.3202726E1,1.521075E1,1.7409582E1,4.0729347E1,3.36585E2,1.7369866E0,1E-1,2.3535301E1,-1.018364E-1,-3.9506156E0,1.2825E0,-6.94368E-1,3.5878334E0,2.1407139E1,1.7768023E0,1.9203333E1,1.7356585E1,4E-1,4.4E0,2.960255E2,-1.8904301E0,2.1670419E-1,-2.941658E0,-3.5044938E-1,7.8047013E-1,3.5050976E0,3.0330735E-1,1.5746617E0,-4.9336013E-1,9.863068E-1,-3.04251E0,-7.406325E-1,-2.4006921E-1,3.6613828E-1,4.8830155E-2,2.4437711E0,-2.6426524E-1,1.1372501E-1,-1.893281E0,-3.0441704E-1,8.282722E-2,-1.5712883E0],"split_indices":[0,2,2,1,3,3,3,0,0,0,0,0,3,0,2,1,2,0,0,0,1,2,0,0,2,3,0,1,2,0,0,0,0,0,2,0,0,0,1,1,3,0,0,0,0,0,0,0,0,0,0,0,0,0,0,0,0,0,0,0,0,0,0],"split_type":[0,0,0,0,0,0,0,0,0,0,0,0,0,0,0,0,0,0,0,0,0,0,0,0,0,0,0,0,0,0,0,0,0,0,0,0,0,0,0,0,0,0,0,0,0,0,0,0,0,0,0,0,0,0,0,0,0,0,0,0,0,0,0],"sum_hessian":[3.678E3,2.9E1,3.649E3,7E0,2.2E1,1.5E1,3.634E3,6E0,1E0,1.8E1,4E0,3E0,1.2E1,1.4E1,3.62E3,9E0,9E0,1E0,2E0,2E0,1E1,1E1,4E0,3.547E3,7.3E1,8E0,1E0,3E0,6E0,1E0,1E0,9E0,1E0,3E0,7E0,1E0,3E0,2.508E3,1.039E3,1.4E1,5.9E1,7E0,1E0,1E0,2E0,4E0,2E0,3E0,6E0,2E0,1E0,6E0,1E0,2E0,1E0,2.494E3,1.4E1,6.28E2,4.11E2,1.2E1,2E0,4.9E1,1E1],"tree_param":{"num_deleted":"0","num_feature":"4","num_nodes":"63","size_leaf_vector":"1"}},{"base_weights":[1.9881194E-2,7.255732E-2,-1.1024004E0,1.9181973E-3,2.6155455E0,-8.937463E0,-7.505272E-1,7.171649E-2,-1.1987711E0,6.0410953E0,-2.1302393E-1,-6.7176676E-1,-9.680632E0,-1.1295611E0,3.2558637E0,6.0167694E-3,1.8065835E0,-3.0721338E0,1.424883E0,-5.100916E0,8.34929E0,1.148685E1,-1.1447533E0,-3.1983857E0,-7.16605E-1,-1.7596052E0,1.3652629E0,-1.4860985E0,5.036923E0,1.14840046E-1,-1.0472045E0,4.157754E0,-2.390987E0,1.0448593E1,-3.54887E0,7.4215145E0,-2.1587278E-1,5.457805E-1,-2.8850641E0,1.4403706E1,5.109198E0,-1.0131283E0,5.270159E0,-3.573601E-1,-1.01104355E1,-5.213915E0,-1.1607649E0,2.2373216E0,-2.1687124E0,9.446385E0,1.6513939E0,2.5821207E-2,1.5486237E0,-7.022464E-1,1.4879886E-2,1.836441E0,-2.8215775E-1,-2.355596E0,-3.3330452E-1,7.6795465E-1,3.6674676E0,7.412865E-1,-1.3005837E0,3.197075E0,-7.424496E-1,-7.2441936E-1,1.1139652E0,8.171409E-1,7.6888924E0,-2.7876434E0,2.0296488E0,-1.9444293E0,2.090787E-1,-2.840401E-1,-3.8548143E0,1.3802943E0,-2.2937245E0,1.078974E0,-5.7132745E-1,1.763994E-1,1.1533937E0,3.1883745E0,7.0804024E-1,1.8331985E0,-1.3006617E0],"categories":[],"categories_nodes":[],"categories_segments":[],"categories_sizes":[],"default_left":[0,0,0,0,0,0,0,0,0,0,0,0,0,0,0,0,0,0,0,0,0,0,0,0,0,0,0,0,0,0,0,0,0,0,0,0,0,0,0,0,0,0,0,0,0,0,0,0,0,0,0,0,0,0,0,0,0,0,0,0,0,0,0,0,0,0,0,0,0,0,0,0,0,0,0,0,0,0,0,0,0,0,0,0,0],"id":15,"left_children":[1,3,5,7,9,11,13,15,17,19,21,-1,23,25,27,29,31,33,35,37,39,41,43,-1,-1,45,47,-1,49,51,53,55,57,59,61,63,65,-1,-1,67,69,-1,-1,71,73,75,77,79,-1,81,83,-1,-1,-1,-1,-1,-1,-1,-1,-1,-1,-1,-1,-1,-1,-1,-1,-1,-1,-1,-1,-1,-1,-1,-1,-1,-1,-1,-1,-1,-1,-1,-1,-1,-1],"loss_changes":[2.1757306E2,6.314101E2,4.4818866E2,2.867865E2,9.217805E2,1.3168396E1,2.4512839E2,3.6860132E2,9.284081E2,1.14846E3,5.909088E2,0E0,1.7438843E1,2.3189229E2,2.2965434E2,3.5737515E2,1.1745071E3,7.4612085E2,7.7888367E2,2.6750616E2,6.326155E2,4.208377E2,3.4936282E2,0E0,0E0,2.3597165E2,2.4101584E2,0E0,1.6354065E2,4.0990732E2,4.1441855E2,7.666372E2,2.9184314E2,2.4757172E1,5.172551E2,5.706911E2,5.532557E2,0E0,0E0,1.503604E3,6.591885E2,0E0,0E0,3.0797452E2,8.822894E1,4.4093716E2,3.6417188E2,7.19673E1,0E0,1.6779785E1,2.4007167E2,0E0,0E0,0E0,0E0,0E0,0E0,0E0,0E0,0E0,0E0,0E0,0E0,0E0,0E0,0E0,0E0,0E0,0E0,0E0,0E0,0E0,0E0,0E0,0E0,0E0,0E0,0E0,0E0,0E0,0E0,0E0,0E0,0E0,0E0],"parents":[2147483647,0,0,1,1,2,2,3,3,4,4,5,5,6,6,7,7,8,8,9,9,10,10,12,12,13,13,14,14,15,15,16,16,17,17,18,18,19,19,20,20,21,21,22,22,25,25,26,26,28,28,29,29,30,30,31,31,32,32,33,33,34,34,35,35,36,36,39,39,40,40,43,43,44,44,45,45,46,46,47,47,49,49,50,50],"right_children":[2,4,6,8,10,12,14,16,18,20,22,-1,24,26,28,30,32,34,36,38,40,42,44,-1,-1,46,48,-1,50,52,54,56,58,60,62,64,66,-1,-1,68,70,-1,-1,72,74,76,78,80,-1,82,84,-1,-1,-1,-1,-1,-1,-1,-1,-1,-1,-1,-1,-1,-1,-1,-1,-1,-1,-1,-1,-1,-1,-1,-1,-1,-1,-1,-1,-1,-1,-1,-1,-1,-1],"split_conditions":[1.0199999E1,7.8E0,1.0400001E1,4.799999E0,2.1096123E1,5.674167E0,3.33435E2,3.7E0,1.4287833E1,4.4116664E0,4.145E0,-6.7176676E-1,1.7934586E1,1.9375332E1,1.2218805E1,2.0000002E0,1.4287833E1,-7.675002E-2,1.5869084E1,2.1232502E0,1.3206582E1,1.8991669E-1,3.3093918E2,-3.1983857E0,-7.16605E-1,1.675064E1,3.1461374E2,-1.4860985E0,1.9008547E1,2E0,2.6000001E0,2.7322077E1,1.7936345E2,2.194524E1,1.7311835E2,7.5999994E0,2.0856583E1,5.457805E-1,-2.8850641E0,7.969084E0,1.396375E1,-1.0131283E0,5.270159E0,2.3469128E1,7.7399173E0,1.1099999E1,1.9008547E1,2.2015837E1,-2.1687124E0,1.2742E1,3.3741812E2,2.5821207E-2,1.5486237E0,-7.022464E-1,1.4879886E-2,1.836441E0,-2.8215775E-1,-2.355596E0,-3.3330452E-1,7.6795465E-1,3.6674676E0,7.412865E-1,-1.3005837E0,3.197075E0,-7.424496E-1,-7.2441936E-1,1.1139652E0,8.171409E-1,7.6888924E0,-2.7876434E0,2.0296488E0,-1.9444293E0,2.090787E-1,-2.840401E-1,-3.8548143E0,1.3802943E0,-2.2937245E0,1.078974E0,-5.7132745E-1,1.763994E-1,1.1533937E0,3.1883745E0,7.0804024E-1,1.8331985E0,-1.3006617E0],"split_indices":[1,1,1,1,2,0,3,1,0,0,0,0,0,0,2,1,0,0,0,0,0,0,3,0,0,2,3,0,2,1,1,2,3,2,3,1,0,0,0,0,0,0,0,2,0,1,2,0,0,0,3,0,0,0,0,0,0,0,0,0,0,0,0,0,0,0,0,0,0,0,0,0,0,0,0,0,0,0,0,0,0,0,0,0,0],"split_type":[0,0,0,0,0,0,0,0,0,0,0,0,0,0,0,0,0,0,0,0,0,0,0,0,0,0,0,0,0,0,0,0,0,0,0,0,0,0,0,0,0,0,0,0,0,0,0,0,0,0,0,0,0,0,0,0,0,0,0,0,0,0,0,0,0,0,0,0,0,0,0,0,0,0,0,0,0,0,0,0,0,0,0,0,0],"sum_hessian":[3.678E3,3.514E3,1.64E2,3.42E3,9.4E1,6E0,1.58E2,3.233E3,1.87E2,4.2E1,5.2E1,1E0,5E0,1.45E2,1.3E1,3.116E3,1.17E2,1.09E2,7.8E1,7E0,3.5E1,3E0,4.9E1,4E0,1E0,1.16E2,2.9E1,2E0,1.1E1,2.825E3,2.91E2,7.5E1,4.2E1,3E0,1.06E2,1.6E1,6.2E1,3E0,4E0,1.1E1,2.4E1,1E0,2E0,4.6E1,3E0,1.6E1,1E2,2.7E1,2E0,4E0,7E0,2.81E3,1.5E1,1.33E2,1.58E2,5.4E1,2.1E1,7E0,3.5E1,1E0,2E0,1.2E1,9.4E1,1.2E1,4E0,4E1,2.2E1,6E0,5E0,2E0,2.2E1,6E0,4E1,1E0,2E0,3E0,1.3E1,1.3E1,8.7E1,1.4E1,1.3E1,3E0,1E0,4E0,3E0],"tree_param":{"num_deleted":"0","num_feature":"4","num_nodes":"85","size_leaf_vector":"1"}},{"base_weights":[1.592202E-2,6.0650796E-2,-1.0668684E0,2.7393224E-2,7.8610506E0,2.7157073E0,-1.5533063E0,4.9312708E-1,-1.3087456E-1,1.7424252E1,1.3370245E0,1.7617967E-2,5.112051E0,-7.00161E0,-4.3939823E-1,5.78659E-1,-5.341237E0,-6.4365945E0,-9.464017E-2,2.0146227E0,6.329947E0,5.43382E0,-2.2998087E0,3.6737568E0,-1.6412985E0,-2.1627504E-1,6.881602E0,-9.571634E0,-1.270376E-1,5.6805983E0,-9.8039395E-1,4.0762207E-1,6.941357E0,-1.1461143E1,3.3881512E0,-5.1912117E0,-9.117024E-1,-1.416792E0,-4.4057E-3,1.861474E0,3.524168E-1,-1.7100072E0,8.253045E-1,1.5404503E0,5.010681E-1,2.4422505E0,2.4506676E0,-1.1959242E0,-1.0682741E1,1.318626E0,-1.6133505E0,-2.43004E0,1.2655117E1,1.8305094E0,-2.7049153E0,2.500557E-1,-3.1118762E-1,-1.478299E0,2.9098346E0,1.0714928E0,-4.6997385E0,1.2566304E0,-1.7580668E0,2.1870801E-1,-1.0791743E0,1.2016107E0,-1.4731227E-2,6.6584533E-1,-1.1377507E-1,-1.1225968E-1,3.3774033E-1,-4.285263E-1,1.5275391E0,1.8367768E-3,-5.4000264E-1,-3.3946702E0,-3.6840135E-1,-1.1288117E0,1.2060099E-1,-1.8156433E-2,-1.1968635E0,1.1597295E0,4.1658044E0,-5.779668E-1,1.2776846E0,-9.668414E-1,2.6181426E0],"categories":[],"categories_nodes":[],"categories_segments":[],"categories_sizes":[],"default_left":[0,0,0,0,0,0,0,0,0,0,0,0,0,0,0,0,0,0,0,0,0,0,0,0,0,0,0,0,0,0,0,0,0,0,0,0,0,0,0,0,0,0,0,0,0,0,0,0,0,0,0,0,0,0,0,0,0,0,0,0,0,0,0,0,0,0,0,0,0,0,0,0,0,0,0,0,0,0,0,0,0,0,0,0,0,0,0],"id":16,"left_children":[1,3,5,7,9,11,13,15,17,19,21,23,25,27,29,31,33,35,37,-1,-1,39,41,43,-1,-1,45,47,49,51,53,55,57,59,-1,-1,61,63,65,-1,-1,-1,67,-1,69,71,-1,73,75,-1,77,79,81,83,85,-1,-1,-1,-1,-1,-1,-1,-1,-1,-1,-1,-1,-1,-1,-1,-1,-1,-1,-1,-1,-1,-1,-1,-1,-1,-1,-1,-1,-1,-1,-1,-1],"loss_changes":[1.7824564E2,9.165832E2,2.7285657E2,2.595261E2,9.125621E2,1.0982429E2,7.8588165E2,4.4871936E2,5.9984644E2,9.447266E1,1.6149036E2,2.007033E2,9.785664E1,3.8747595E2,3.6645645E2,9.559243E2,1.4529064E3,8.8484564E2,3.1185358E2,0E0,0E0,9.13176E0,6.846059E1,2.5240364E1,0E0,0E0,2.0052673E1,1.3612512E2,5.4143867E1,5.3986255E2,4.9454507E2,5.294798E2,8.007201E2,6.8802893E2,0E0,0E0,3.0218466E2,7.8399243E2,4.3895288E2,0E0,0E0,0E0,7.559203E0,0E0,2.061698E0,3.8039803E1,0E0,2.1894345E0,6.9869385E1,0E0,2.7502884E1,1.8234928E1,4.138794E-1,3.6403345E2,4.0111993E2,0E0,0E0,0E0,0E0,0E0,0E0,0E0,0E0,0E0,0E0,0E0,0E0,0E0,0E0,0E0,0E0,0E0,0E0,0E0,0E0,0E0,0E0,0E0,0E0,0E0,0E0,0E0,0E0,0E0,0E0,0E0,0E0],"parents":[2147483647,0,0,1,1,2,2,3,3,4,4,5,5,6,6,7,7,8,8,9,9,10,10,11,11,12,12,13,13,14,14,15,15,16,16,17,17,18,18,21,21,22,22,23,23,26,26,27,27,28,28,29,29,30,30,31,31,32,32,33,33,36,36,37,37,38,38,42,42,44,44,45,45,47,47,48,48,50,50,51,51,52,52,53,53,54,54],"right_children":[2,4,6,8,10,12,14,16,18,20,22,24,26,28,30,32,34,36,38,-1,-1,40,42,44,-1,-1,46,48,50,52,54,56,58,60,-1,-1,62,64,66,-1,-1,-1,68,-1,70,72,-1,74,76,-1,78,80,82,84,86,-1,-1,-1,-1,-1,-1,-1,-1,-1,-1,-1,-1,-1,-1,-1,-1,-1,-1,-1,-1,-1,-1,-1,-1,-1,-1,-1,-1,-1,-1,-1,-1],"split_conditions":[3.4467383E2,3.438845E2,8.875009E-2,5.0940833E0,6.9762497E0,-3.0362504E0,4.215833E0,3.4096255E2,5.1899166E0,2.1232502E0,1.62325E1,-3.4913337E0,3.4700537E2,3.545703E2,5.9378333E0,3.3844794E2,1.3000001E0,1.6634569E2,6.189917E0,2.0146227E0,6.329947E0,2.475638E1,1.9598251E1,-4.568417E0,-1.6412985E0,-2.1627504E-1,1.5463246E1,5.420001E-1,8.287822E0,1.7208603E1,1.4345898E1,3.0635425E2,-1.0830001E0,-3.0362504E0,3.3881512E0,-5.1912117E0,2.4633049E1,5.674167E0,6.437834E0,1.861474E0,3.524168E-1,-1.7100072E0,1.8806337E1,1.5404503E0,1.8875126E1,-2.2425E0,2.4506676E0,1E-1,2.8483257E1,1.318626E0,1.375558E1,5.0940833E0,4.967E0,1.1090103E1,7.2E0,2.500557E-1,-3.1118762E-1,-1.478299E0,2.9098346E0,1.0714928E0,-4.6997385E0,1.2566304E0,-1.7580668E0,2.1870801E-1,-1.0791743E0,1.2016107E0,-1.4731227E-2,6.6584533E-1,-1.1377507E-1,-1.1225968E-1,3.3774033E-1,-4.285263E-1,1.5275391E0,1.8367768E-3,-5.4000264E-1,-3.3946702E0,-3.6840135E-1,-1.1288117E0,1.2060099E-1,-1.8156433E-2,-1.1968635E0,1.1597295E0,4.1658044E0,-5.779668E-1,1.2776846E0,-9.668414E-1,2.6181426E0],"split_indices":[3,3,0,0,0,0,0,3,0,0,0,0,3,3,0,3,1,3,0,0,0,2,0,0,0,0,2,0,2,2,2,3,0,0,0,0,2,0,0,0,0,0,2,0,2,0,0,1,2,0,2,0,0,2,1,0,0,0,0,0,0,0,0,0,0,0,0,0,0,0,0,0,0,0,0,0,0,0,0,0,0,0,0,0,0,0,0],"split_type":[0,0,0,0,0,0,0,0,0,0,0,0,0,0,0,0,0,0,0,0,0,0,0,0,0,0,0,0,0,0,0,0,0,0,0,0,0,0,0,0,0,0,0,0,0,0,0,0,0,0,0,0,0,0,0,0,0,0,0,0,0,0,0,0,0,0,0,0,0,0,0,0,0,0,0,0,0,0,0,0,0,0,0,0,0,0,0],"sum_hessian":[3.678E3,3.533E3,1.45E2,3.519E3,1.4E1,1.6E1,1.29E2,8.92E2,2.627E3,5E0,9E0,8E0,8E0,2.1E1,